<?xml version="1.0" encoding="UTF-8" standalone="yes"?>
<PMML xmlns="http://www.dmg.org/PMML-4_3" version="4.3">
	<Header>
		<Application name="JPMML-SkLearn" version="1.4.0"/>
		<Timestamp>2017-11-24T02:01:34Z</Timestamp>
	</Header>
	<MiningBuildTask>
		<Extension>PMMLPipeline(steps=[('regressor', XGBRegressor(base_score=0.5, colsample_bylevel=1, colsample_bytree=0.6,
       gamma=0.2, learning_rate=0.1, max_delta_step=0, max_depth=5,
       min_child_weight=9, missing=None, n_estimators=500, nthread=4,
       objective='reg:linear', reg_alpha=0, reg_lambda=1,
       scale_pos_weight=1, seed=0, silent=False, subsample=0.9))])</Extension>
	</MiningBuildTask>
	<DataDictionary>
		<DataField name="AR_DLVRD" optype="continuous" dataType="double"/>
		<DataField name="ZIP_TO" optype="continuous" dataType="float"/>
		<DataField name="ISC" optype="continuous" dataType="float"/>
		<DataField name="DIS" optype="continuous" dataType="float"/>
		<DataField name="ISC_IN_CNT_PAST_DAY" optype="continuous" dataType="float"/>
		<DataField name="ISC_IN_CNT_PAST_3_DAYS" optype="continuous" dataType="float"/>
		<DataField name="ISC_IN_CNT_PAST_WEEK" optype="continuous" dataType="float"/>
	</DataDictionary>
	<MiningModel functionName="regression" x-mathContext="float">
		<MiningSchema>
			<MiningField name="AR_DLVRD" usageType="target"/>
			<MiningField name="ISC_IN_CNT_PAST_DAY"/>
			<MiningField name="ISC"/>
			<MiningField name="ISC_IN_CNT_PAST_WEEK"/>
			<MiningField name="ISC_IN_CNT_PAST_3_DAYS"/>
			<MiningField name="ZIP_TO"/>
			<MiningField name="DIS"/>
		</MiningSchema>
		<Targets>
			<Target field="AR_DLVRD" rescaleConstant="0.5"/>
		</Targets>
		<Segmentation multipleModelMethod="sum">
			<Segment id="1">
				<True/>
				<TreeModel functionName="regression" missingValueStrategy="defaultChild" splitCharacteristic="binarySplit" x-mathContext="float">
					<MiningSchema>
						<MiningField name="ZIP_TO"/>
						<MiningField name="ISC"/>
						<MiningField name="ISC_IN_CNT_PAST_DAY"/>
					</MiningSchema>
					<Node id="1" defaultChild="2">
						<True/>
						<Node id="2" defaultChild="4">
							<SimplePredicate field="ISC" operator="lessThan" value="1.5"/>
							<Node id="4" defaultChild="8">
								<SimplePredicate field="ZIP_TO" operator="lessThan" value="349.5"/>
								<Node id="8" defaultChild="16">
									<SimplePredicate field="ZIP_TO" operator="lessThan" value="319.5"/>
									<Node id="16" defaultChild="32">
										<SimplePredicate field="ZIP_TO" operator="lessThan" value="145.5"/>
										<Node id="32" score="0.35526612">
											<SimplePredicate field="ZIP_TO" operator="lessThan" value="27.5"/>
										</Node>
										<Node id="33" score="0.3886313">
											<SimplePredicate field="ZIP_TO" operator="greaterOrEqual" value="27.5"/>
										</Node>
									</Node>
									<Node id="17" defaultChild="34">
										<SimplePredicate field="ZIP_TO" operator="greaterOrEqual" value="145.5"/>
										<Node id="34" score="0.3546325">
											<SimplePredicate field="ZIP_TO" operator="lessThan" value="226.5"/>
										</Node>
										<Node id="35" score="0.3706303">
											<SimplePredicate field="ZIP_TO" operator="greaterOrEqual" value="226.5"/>
										</Node>
									</Node>
								</Node>
								<Node id="9" defaultChild="18">
									<SimplePredicate field="ZIP_TO" operator="greaterOrEqual" value="319.5"/>
									<Node id="18" defaultChild="36">
										<SimplePredicate field="ZIP_TO" operator="lessThan" value="331.5"/>
										<Node id="36" score="0.3889066">
											<SimplePredicate field="ZIP_TO" operator="lessThan" value="330.5"/>
										</Node>
										<Node id="37" score="0.45190176">
											<SimplePredicate field="ZIP_TO" operator="greaterOrEqual" value="330.5"/>
										</Node>
									</Node>
									<Node id="19" defaultChild="38">
										<SimplePredicate field="ZIP_TO" operator="greaterOrEqual" value="331.5"/>
										<Node id="38" score="0.39107808">
											<SimplePredicate field="ZIP_TO" operator="lessThan" value="334.5"/>
										</Node>
										<Node id="39" score="0.36665842">
											<SimplePredicate field="ZIP_TO" operator="greaterOrEqual" value="334.5"/>
										</Node>
									</Node>
								</Node>
							</Node>
							<Node id="5" defaultChild="10">
								<SimplePredicate field="ZIP_TO" operator="greaterOrEqual" value="349.5"/>
								<Node id="10" defaultChild="20">
									<SimplePredicate field="ZIP_TO" operator="lessThan" value="639.5"/>
									<Node id="20" defaultChild="40">
										<SimplePredicate field="ZIP_TO" operator="lessThan" value="599.5"/>
										<Node id="40" score="0.2943324">
											<SimplePredicate field="ZIP_TO" operator="lessThan" value="563.5"/>
										</Node>
										<Node id="41" score="0.37973544">
											<SimplePredicate field="ZIP_TO" operator="greaterOrEqual" value="563.5"/>
										</Node>
									</Node>
									<Node id="21" defaultChild="42">
										<SimplePredicate field="ZIP_TO" operator="greaterOrEqual" value="599.5"/>
										<Node id="42" score="0.18847306">
											<SimplePredicate field="ZIP_TO" operator="lessThan" value="601.5"/>
										</Node>
										<Node id="43" score="0.24683416">
											<SimplePredicate field="ZIP_TO" operator="greaterOrEqual" value="601.5"/>
										</Node>
									</Node>
								</Node>
								<Node id="11" defaultChild="22">
									<SimplePredicate field="ZIP_TO" operator="greaterOrEqual" value="639.5"/>
									<Node id="22" defaultChild="44">
										<SimplePredicate field="ZIP_TO" operator="lessThan" value="765.5"/>
										<Node id="44" score="0.35666433">
											<SimplePredicate field="ZIP_TO" operator="lessThan" value="670.5"/>
										</Node>
										<Node id="45" score="0.30889103">
											<SimplePredicate field="ZIP_TO" operator="greaterOrEqual" value="670.5"/>
										</Node>
									</Node>
									<Node id="23" defaultChild="46">
										<SimplePredicate field="ZIP_TO" operator="greaterOrEqual" value="765.5"/>
										<Node id="46" score="0.36067382">
											<SimplePredicate field="ZIP_TO" operator="lessThan" value="785.5"/>
										</Node>
										<Node id="47" score="0.33841792">
											<SimplePredicate field="ZIP_TO" operator="greaterOrEqual" value="785.5"/>
										</Node>
									</Node>
								</Node>
							</Node>
						</Node>
						<Node id="3" defaultChild="6">
							<SimplePredicate field="ISC" operator="greaterOrEqual" value="1.5"/>
							<Node id="6" defaultChild="12">
								<SimplePredicate field="ZIP_TO" operator="lessThan" value="254.5"/>
								<Node id="12" defaultChild="24">
									<SimplePredicate field="ZIP_TO" operator="lessThan" value="99.0"/>
									<Node id="24" defaultChild="48">
										<SimplePredicate field="ZIP_TO" operator="lessThan" value="57.5"/>
										<Node id="48" score="0.46876597">
											<SimplePredicate field="ISC_IN_CNT_PAST_DAY" operator="lessThan" value="6919.5"/>
										</Node>
										<Node id="49" score="0.30972502">
											<SimplePredicate field="ISC_IN_CNT_PAST_DAY" operator="greaterOrEqual" value="6919.5"/>
										</Node>
									</Node>
									<Node id="25" defaultChild="50">
										<SimplePredicate field="ZIP_TO" operator="greaterOrEqual" value="57.5"/>
										<Node id="50" score="0.3783078">
											<SimplePredicate field="ZIP_TO" operator="lessThan" value="89.5"/>
										</Node>
										<Node id="51" score="0.43985268">
											<SimplePredicate field="ZIP_TO" operator="greaterOrEqual" value="89.5"/>
										</Node>
									</Node>
								</Node>
								<Node id="13" defaultChild="26">
									<SimplePredicate field="ZIP_TO" operator="greaterOrEqual" value="99.0"/>
									<Node id="26" defaultChild="52">
										<SimplePredicate field="ISC_IN_CNT_PAST_DAY" operator="lessThan" value="9462.5"/>
										<Node id="52" score="0.39204475">
											<SimplePredicate field="ISC" operator="lessThan" value="4.5"/>
										</Node>
										<Node id="53" score="0.46194616">
											<SimplePredicate field="ISC" operator="greaterOrEqual" value="4.5"/>
										</Node>
									</Node>
									<Node id="27" defaultChild="54">
										<SimplePredicate field="ISC_IN_CNT_PAST_DAY" operator="greaterOrEqual" value="9462.5"/>
										<Node id="54" score="0.28498006">
											<SimplePredicate field="ZIP_TO" operator="lessThan" value="119.5"/>
										</Node>
										<Node id="55" score="0.32739943">
											<SimplePredicate field="ZIP_TO" operator="greaterOrEqual" value="119.5"/>
										</Node>
									</Node>
								</Node>
							</Node>
							<Node id="7" defaultChild="14">
								<SimplePredicate field="ZIP_TO" operator="greaterOrEqual" value="254.5"/>
								<Node id="14" defaultChild="28">
									<SimplePredicate field="ZIP_TO" operator="lessThan" value="887.0"/>
									<Node id="28" defaultChild="56">
										<SimplePredicate field="ISC_IN_CNT_PAST_DAY" operator="lessThan" value="3746.0"/>
										<Node id="56" score="0.31387573">
											<SimplePredicate field="ZIP_TO" operator="lessThan" value="368.5"/>
										</Node>
										<Node id="57" score="0.39795873">
											<SimplePredicate field="ZIP_TO" operator="greaterOrEqual" value="368.5"/>
										</Node>
									</Node>
									<Node id="29" defaultChild="58">
										<SimplePredicate field="ISC_IN_CNT_PAST_DAY" operator="greaterOrEqual" value="3746.0"/>
										<Node id="58" score="0.42237145">
											<SimplePredicate field="ISC_IN_CNT_PAST_DAY" operator="lessThan" value="22464.0"/>
										</Node>
										<Node id="59" score="0.45229992">
											<SimplePredicate field="ISC_IN_CNT_PAST_DAY" operator="greaterOrEqual" value="22464.0"/>
										</Node>
									</Node>
								</Node>
								<Node id="15" defaultChild="30">
									<SimplePredicate field="ZIP_TO" operator="greaterOrEqual" value="887.0"/>
									<Node id="30" defaultChild="60">
										<SimplePredicate field="ZIP_TO" operator="lessThan" value="968.5"/>
										<Node id="60" score="0.32857272">
											<SimplePredicate field="ISC_IN_CNT_PAST_DAY" operator="lessThan" value="14414.5"/>
										</Node>
										<Node id="61" score="0.4089423">
											<SimplePredicate field="ISC_IN_CNT_PAST_DAY" operator="greaterOrEqual" value="14414.5"/>
										</Node>
									</Node>
									<Node id="31" defaultChild="62">
										<SimplePredicate field="ZIP_TO" operator="greaterOrEqual" value="968.5"/>
										<Node id="62" score="0.77305883">
											<SimplePredicate field="ZIP_TO" operator="lessThan" value="969.5"/>
										</Node>
										<Node id="63" score="0.40513158">
											<SimplePredicate field="ZIP_TO" operator="greaterOrEqual" value="969.5"/>
										</Node>
									</Node>
								</Node>
							</Node>
						</Node>
					</Node>
				</TreeModel>
			</Segment>
			<Segment id="2">
				<True/>
				<TreeModel functionName="regression" missingValueStrategy="defaultChild" splitCharacteristic="binarySplit" x-mathContext="float">
					<MiningSchema>
						<MiningField name="ISC"/>
						<MiningField name="DIS"/>
						<MiningField name="ISC_IN_CNT_PAST_3_DAYS"/>
					</MiningSchema>
					<Node id="1" defaultChild="2">
						<True/>
						<Node id="2" defaultChild="4">
							<SimplePredicate field="DIS" operator="lessThan" value="587.855"/>
							<Node id="4" defaultChild="8">
								<SimplePredicate field="ISC" operator="lessThan" value="1.5"/>
								<Node id="8" defaultChild="16">
									<SimplePredicate field="DIS" operator="lessThan" value="87.520004"/>
									<Node id="16" defaultChild="32">
										<SimplePredicate field="DIS" operator="lessThan" value="28.56"/>
										<Node id="32" score="0.15982826">
											<SimplePredicate field="DIS" operator="lessThan" value="12.645"/>
										</Node>
										<Node id="33" score="0.18048465">
											<SimplePredicate field="DIS" operator="greaterOrEqual" value="12.645"/>
										</Node>
									</Node>
									<Node id="17" defaultChild="34">
										<SimplePredicate field="DIS" operator="greaterOrEqual" value="28.56"/>
										<Node id="34" score="0.2326241">
											<SimplePredicate field="ISC_IN_CNT_PAST_3_DAYS" operator="lessThan" value="36962.5"/>
										</Node>
										<Node id="35" score="0.20353436">
											<SimplePredicate field="ISC_IN_CNT_PAST_3_DAYS" operator="greaterOrEqual" value="36962.5"/>
										</Node>
									</Node>
								</Node>
								<Node id="9" defaultChild="18">
									<SimplePredicate field="DIS" operator="greaterOrEqual" value="87.520004"/>
									<Node id="18" defaultChild="36">
										<SimplePredicate field="DIS" operator="lessThan" value="469.91"/>
										<Node id="36" score="0.23293309">
											<SimplePredicate field="DIS" operator="lessThan" value="209.22"/>
										</Node>
										<Node id="37" score="0.25323984">
											<SimplePredicate field="DIS" operator="greaterOrEqual" value="209.22"/>
										</Node>
									</Node>
									<Node id="19" defaultChild="38">
										<SimplePredicate field="DIS" operator="greaterOrEqual" value="469.91"/>
										<Node id="38" score="0.27188498">
											<SimplePredicate field="DIS" operator="lessThan" value="550.47"/>
										</Node>
										<Node id="39" score="0.28612825">
											<SimplePredicate field="DIS" operator="greaterOrEqual" value="550.47"/>
										</Node>
									</Node>
								</Node>
							</Node>
							<Node id="5" defaultChild="10">
								<SimplePredicate field="ISC" operator="greaterOrEqual" value="1.5"/>
								<Node id="10" defaultChild="20">
									<SimplePredicate field="DIS" operator="lessThan" value="81.59"/>
									<Node id="20" defaultChild="40">
										<SimplePredicate field="ISC" operator="lessThan" value="4.5"/>
										<Node id="40" score="0.25152224">
											<SimplePredicate field="ISC_IN_CNT_PAST_3_DAYS" operator="lessThan" value="67923.5"/>
										</Node>
										<Node id="41" score="0.2970461">
											<SimplePredicate field="ISC_IN_CNT_PAST_3_DAYS" operator="greaterOrEqual" value="67923.5"/>
										</Node>
									</Node>
									<Node id="21" defaultChild="42">
										<SimplePredicate field="ISC" operator="greaterOrEqual" value="4.5"/>
										<Node id="42" score="0.31144273">
											<SimplePredicate field="DIS" operator="lessThan" value="44.915"/>
										</Node>
										<Node id="43" score="0.27546093">
											<SimplePredicate field="DIS" operator="greaterOrEqual" value="44.915"/>
										</Node>
									</Node>
								</Node>
								<Node id="11" defaultChild="22">
									<SimplePredicate field="DIS" operator="greaterOrEqual" value="81.59"/>
									<Node id="22" defaultChild="44">
										<SimplePredicate field="ISC" operator="lessThan" value="2.5"/>
										<Node id="44" score="0.30193615">
											<SimplePredicate field="DIS" operator="lessThan" value="284.485"/>
										</Node>
										<Node id="45" score="0.34267688">
											<SimplePredicate field="DIS" operator="greaterOrEqual" value="284.485"/>
										</Node>
									</Node>
									<Node id="23" defaultChild="46">
										<SimplePredicate field="ISC" operator="greaterOrEqual" value="2.5"/>
										<Node id="46" score="0.27984878">
											<SimplePredicate field="DIS" operator="lessThan" value="486.72"/>
										</Node>
										<Node id="47" score="0.31421897">
											<SimplePredicate field="DIS" operator="greaterOrEqual" value="486.72"/>
										</Node>
									</Node>
								</Node>
							</Node>
						</Node>
						<Node id="3" defaultChild="6">
							<SimplePredicate field="DIS" operator="greaterOrEqual" value="587.855"/>
							<Node id="6" defaultChild="12">
								<SimplePredicate field="ISC" operator="lessThan" value="1.5"/>
								<Node id="12" defaultChild="24">
									<SimplePredicate field="DIS" operator="lessThan" value="1748.505"/>
									<Node id="24" defaultChild="48">
										<SimplePredicate field="DIS" operator="lessThan" value="692.065"/>
										<Node id="48" score="0.29797">
											<SimplePredicate field="DIS" operator="lessThan" value="663.625"/>
										</Node>
										<Node id="49" score="0.268908">
											<SimplePredicate field="DIS" operator="greaterOrEqual" value="663.625"/>
										</Node>
									</Node>
									<Node id="25" defaultChild="50">
										<SimplePredicate field="DIS" operator="greaterOrEqual" value="692.065"/>
										<Node id="50" score="0.32042196">
											<SimplePredicate field="DIS" operator="lessThan" value="1236.24"/>
										</Node>
										<Node id="51" score="0.3062258">
											<SimplePredicate field="DIS" operator="greaterOrEqual" value="1236.24"/>
										</Node>
									</Node>
								</Node>
								<Node id="13" defaultChild="26">
									<SimplePredicate field="DIS" operator="greaterOrEqual" value="1748.505"/>
									<Node id="26" defaultChild="52">
										<SimplePredicate field="DIS" operator="lessThan" value="2263.385"/>
										<Node id="52" score="0.33999726">
											<SimplePredicate field="DIS" operator="lessThan" value="1919.355"/>
										</Node>
										<Node id="53" score="0.37943885">
											<SimplePredicate field="DIS" operator="greaterOrEqual" value="1919.355"/>
										</Node>
									</Node>
									<Node id="27" defaultChild="54">
										<SimplePredicate field="DIS" operator="greaterOrEqual" value="2263.385"/>
										<Node id="54" score="0.2923338">
											<SimplePredicate field="DIS" operator="lessThan" value="3142.47"/>
										</Node>
										<Node id="55" score="0.36182958">
											<SimplePredicate field="DIS" operator="greaterOrEqual" value="3142.47"/>
										</Node>
									</Node>
								</Node>
							</Node>
							<Node id="7" defaultChild="14">
								<SimplePredicate field="ISC" operator="greaterOrEqual" value="1.5"/>
								<Node id="14" defaultChild="28">
									<SimplePredicate field="DIS" operator="lessThan" value="8344.68"/>
									<Node id="28" defaultChild="56">
										<SimplePredicate field="DIS" operator="lessThan" value="1146.45"/>
										<Node id="56" score="0.3951007">
											<SimplePredicate field="ISC" operator="lessThan" value="2.5"/>
										</Node>
										<Node id="57" score="0.35137913">
											<SimplePredicate field="ISC" operator="greaterOrEqual" value="2.5"/>
										</Node>
									</Node>
									<Node id="29" defaultChild="58">
										<SimplePredicate field="DIS" operator="greaterOrEqual" value="1146.45"/>
										<Node id="58" score="0.44032833">
											<SimplePredicate field="ISC" operator="lessThan" value="2.5"/>
										</Node>
										<Node id="59" score="0.38809416">
											<SimplePredicate field="ISC" operator="greaterOrEqual" value="2.5"/>
										</Node>
									</Node>
								</Node>
								<Node id="15" defaultChild="30">
									<SimplePredicate field="DIS" operator="greaterOrEqual" value="8344.68"/>
									<Node id="30" defaultChild="60">
										<SimplePredicate field="DIS" operator="lessThan" value="9292.58"/>
										<Node id="60" score="0.67979455">
											<SimplePredicate field="ISC_IN_CNT_PAST_3_DAYS" operator="lessThan" value="15795.0"/>
										</Node>
										<Node id="61" score="0.9554054">
											<SimplePredicate field="ISC_IN_CNT_PAST_3_DAYS" operator="greaterOrEqual" value="15795.0"/>
										</Node>
									</Node>
									<Node id="31" defaultChild="62">
										<SimplePredicate field="DIS" operator="greaterOrEqual" value="9292.58"/>
										<Node id="62" score="0.5352596">
											<SimplePredicate field="DIS" operator="lessThan" value="9456.205"/>
										</Node>
										<Node id="63" score="0.6750112">
											<SimplePredicate field="DIS" operator="greaterOrEqual" value="9456.205"/>
										</Node>
									</Node>
								</Node>
							</Node>
						</Node>
					</Node>
				</TreeModel>
			</Segment>
			<Segment id="3">
				<True/>
				<TreeModel functionName="regression" missingValueStrategy="defaultChild" splitCharacteristic="binarySplit" x-mathContext="float">
					<MiningSchema>
						<MiningField name="ISC"/>
						<MiningField name="ISC_IN_CNT_PAST_DAY"/>
						<MiningField name="ISC_IN_CNT_PAST_WEEK"/>
					</MiningSchema>
					<Node id="1" defaultChild="2">
						<True/>
						<Node id="2" defaultChild="4">
							<SimplePredicate field="ISC" operator="lessThan" value="1.5"/>
							<Node id="4" defaultChild="8">
								<SimplePredicate field="ISC_IN_CNT_PAST_WEEK" operator="lessThan" value="91191.0"/>
								<Node id="8" defaultChild="16">
									<SimplePredicate field="ISC_IN_CNT_PAST_WEEK" operator="lessThan" value="74411.0"/>
									<Node id="16" defaultChild="32">
										<SimplePredicate field="ISC_IN_CNT_PAST_DAY" operator="lessThan" value="11967.0"/>
										<Node id="32" score="0.2412341">
											<SimplePredicate field="ISC_IN_CNT_PAST_WEEK" operator="lessThan" value="66719.0"/>
										</Node>
										<Node id="33" score="0.2506798">
											<SimplePredicate field="ISC_IN_CNT_PAST_WEEK" operator="greaterOrEqual" value="66719.0"/>
										</Node>
									</Node>
									<Node id="17" score="0.26142105">
										<SimplePredicate field="ISC_IN_CNT_PAST_DAY" operator="greaterOrEqual" value="11967.0"/>
									</Node>
								</Node>
								<Node id="9" defaultChild="18">
									<SimplePredicate field="ISC_IN_CNT_PAST_WEEK" operator="greaterOrEqual" value="74411.0"/>
									<Node id="18" defaultChild="34">
										<SimplePredicate field="ISC_IN_CNT_PAST_DAY" operator="lessThan" value="8349.0"/>
										<Node id="34" score="0.26253113">
											<SimplePredicate field="ISC_IN_CNT_PAST_DAY" operator="lessThan" value="8104.5"/>
										</Node>
										<Node id="35" score="0.24063182">
											<SimplePredicate field="ISC_IN_CNT_PAST_DAY" operator="greaterOrEqual" value="8104.5"/>
										</Node>
									</Node>
									<Node id="19" defaultChild="36">
										<SimplePredicate field="ISC_IN_CNT_PAST_DAY" operator="greaterOrEqual" value="8349.0"/>
										<Node id="36" score="0.28420287">
											<SimplePredicate field="ISC_IN_CNT_PAST_DAY" operator="lessThan" value="12848.0"/>
										</Node>
										<Node id="37" score="0.2668803">
											<SimplePredicate field="ISC_IN_CNT_PAST_DAY" operator="greaterOrEqual" value="12848.0"/>
										</Node>
									</Node>
								</Node>
							</Node>
							<Node id="5" defaultChild="10">
								<SimplePredicate field="ISC_IN_CNT_PAST_WEEK" operator="greaterOrEqual" value="91191.0"/>
								<Node id="10" defaultChild="20">
									<SimplePredicate field="ISC_IN_CNT_PAST_DAY" operator="lessThan" value="10940.5"/>
									<Node id="20" score="0.283158">
										<SimplePredicate field="ISC_IN_CNT_PAST_DAY" operator="lessThan" value="7819.0"/>
									</Node>
									<Node id="21" defaultChild="38">
										<SimplePredicate field="ISC_IN_CNT_PAST_DAY" operator="greaterOrEqual" value="7819.0"/>
										<Node id="38" score="0.26402223">
											<SimplePredicate field="ISC_IN_CNT_PAST_DAY" operator="lessThan" value="10709.5"/>
										</Node>
										<Node id="39" score="0.28257784">
											<SimplePredicate field="ISC_IN_CNT_PAST_DAY" operator="greaterOrEqual" value="10709.5"/>
										</Node>
									</Node>
								</Node>
								<Node id="11" defaultChild="22">
									<SimplePredicate field="ISC_IN_CNT_PAST_DAY" operator="greaterOrEqual" value="10940.5"/>
									<Node id="22" defaultChild="40">
										<SimplePredicate field="ISC_IN_CNT_PAST_DAY" operator="lessThan" value="22903.0"/>
										<Node id="40" score="0.24376498">
											<SimplePredicate field="ISC_IN_CNT_PAST_DAY" operator="lessThan" value="11489.0"/>
										</Node>
										<Node id="41" score="0.2554513">
											<SimplePredicate field="ISC_IN_CNT_PAST_DAY" operator="greaterOrEqual" value="11489.0"/>
										</Node>
									</Node>
									<Node id="23" score="0.27928016">
										<SimplePredicate field="ISC_IN_CNT_PAST_DAY" operator="greaterOrEqual" value="22903.0"/>
									</Node>
								</Node>
							</Node>
						</Node>
						<Node id="3" defaultChild="6">
							<SimplePredicate field="ISC" operator="greaterOrEqual" value="1.5"/>
							<Node id="6" defaultChild="12">
								<SimplePredicate field="ISC_IN_CNT_PAST_WEEK" operator="lessThan" value="143796.5"/>
								<Node id="12" defaultChild="24">
									<SimplePredicate field="ISC_IN_CNT_PAST_WEEK" operator="lessThan" value="27426.0"/>
									<Node id="24" defaultChild="42">
										<SimplePredicate field="ISC_IN_CNT_PAST_DAY" operator="lessThan" value="3645.5"/>
										<Node id="42" score="0.2795204">
											<SimplePredicate field="ISC_IN_CNT_PAST_WEEK" operator="lessThan" value="21592.0"/>
										</Node>
										<Node id="43" score="0.21773374">
											<SimplePredicate field="ISC_IN_CNT_PAST_WEEK" operator="greaterOrEqual" value="21592.0"/>
										</Node>
									</Node>
									<Node id="25" defaultChild="44">
										<SimplePredicate field="ISC_IN_CNT_PAST_DAY" operator="greaterOrEqual" value="3645.5"/>
										<Node id="44" score="0.28923386">
											<SimplePredicate field="ISC_IN_CNT_PAST_WEEK" operator="lessThan" value="14443.0"/>
										</Node>
										<Node id="45" score="0.24126454">
											<SimplePredicate field="ISC_IN_CNT_PAST_WEEK" operator="greaterOrEqual" value="14443.0"/>
										</Node>
									</Node>
								</Node>
								<Node id="13" defaultChild="26">
									<SimplePredicate field="ISC_IN_CNT_PAST_WEEK" operator="greaterOrEqual" value="27426.0"/>
									<Node id="26" defaultChild="46">
										<SimplePredicate field="ISC_IN_CNT_PAST_WEEK" operator="lessThan" value="103953.0"/>
										<Node id="46" score="0.3044494">
											<SimplePredicate field="ISC_IN_CNT_PAST_DAY" operator="lessThan" value="14504.5"/>
										</Node>
										<Node id="47" score="0.33864686">
											<SimplePredicate field="ISC_IN_CNT_PAST_DAY" operator="greaterOrEqual" value="14504.5"/>
										</Node>
									</Node>
									<Node id="27" defaultChild="48">
										<SimplePredicate field="ISC_IN_CNT_PAST_WEEK" operator="greaterOrEqual" value="103953.0"/>
										<Node id="48" score="0.26868293">
											<SimplePredicate field="ISC_IN_CNT_PAST_WEEK" operator="lessThan" value="119941.5"/>
										</Node>
										<Node id="49" score="0.2974303">
											<SimplePredicate field="ISC_IN_CNT_PAST_WEEK" operator="greaterOrEqual" value="119941.5"/>
										</Node>
									</Node>
								</Node>
							</Node>
							<Node id="7" defaultChild="14">
								<SimplePredicate field="ISC_IN_CNT_PAST_WEEK" operator="greaterOrEqual" value="143796.5"/>
								<Node id="14" defaultChild="28">
									<SimplePredicate field="ISC_IN_CNT_PAST_WEEK" operator="lessThan" value="147676.0"/>
									<Node id="28" defaultChild="50">
										<SimplePredicate field="ISC_IN_CNT_PAST_WEEK" operator="lessThan" value="145704.0"/>
										<Node id="50" score="0.32615325">
											<SimplePredicate field="ISC_IN_CNT_PAST_WEEK" operator="lessThan" value="145523.0"/>
										</Node>
										<Node id="51" score="0.35936365">
											<SimplePredicate field="ISC_IN_CNT_PAST_WEEK" operator="greaterOrEqual" value="145523.0"/>
										</Node>
									</Node>
									<Node id="29" defaultChild="52">
										<SimplePredicate field="ISC_IN_CNT_PAST_WEEK" operator="greaterOrEqual" value="145704.0"/>
										<Node id="52" score="0.25678053">
											<SimplePredicate field="ISC_IN_CNT_PAST_DAY" operator="lessThan" value="21298.5"/>
										</Node>
										<Node id="53" score="0.30570403">
											<SimplePredicate field="ISC_IN_CNT_PAST_DAY" operator="greaterOrEqual" value="21298.5"/>
										</Node>
									</Node>
								</Node>
								<Node id="15" defaultChild="30">
									<SimplePredicate field="ISC_IN_CNT_PAST_WEEK" operator="greaterOrEqual" value="147676.0"/>
									<Node id="30" defaultChild="54">
										<SimplePredicate field="ISC_IN_CNT_PAST_WEEK" operator="lessThan" value="151737.5"/>
										<Node id="54" score="0.38588312">
											<SimplePredicate field="ISC_IN_CNT_PAST_DAY" operator="lessThan" value="21212.0"/>
										</Node>
										<Node id="55" score="0.32197604">
											<SimplePredicate field="ISC_IN_CNT_PAST_DAY" operator="greaterOrEqual" value="21212.0"/>
										</Node>
									</Node>
									<Node id="31" defaultChild="56">
										<SimplePredicate field="ISC_IN_CNT_PAST_WEEK" operator="greaterOrEqual" value="151737.5"/>
										<Node id="56" score="0.28717393">
											<SimplePredicate field="ISC_IN_CNT_PAST_WEEK" operator="lessThan" value="152167.5"/>
										</Node>
										<Node id="57" score="0.34434423">
											<SimplePredicate field="ISC_IN_CNT_PAST_WEEK" operator="greaterOrEqual" value="152167.5"/>
										</Node>
									</Node>
								</Node>
							</Node>
						</Node>
					</Node>
				</TreeModel>
			</Segment>
			<Segment id="4">
				<True/>
				<TreeModel functionName="regression" missingValueStrategy="defaultChild" splitCharacteristic="binarySplit" x-mathContext="float">
					<MiningSchema>
						<MiningField name="DIS"/>
						<MiningField name="ISC_IN_CNT_PAST_3_DAYS"/>
						<MiningField name="ISC_IN_CNT_PAST_WEEK"/>
					</MiningSchema>
					<Node id="1" defaultChild="2">
						<True/>
						<Node id="2" defaultChild="4">
							<SimplePredicate field="DIS" operator="lessThan" value="587.855"/>
							<Node id="4" defaultChild="8">
								<SimplePredicate field="DIS" operator="lessThan" value="81.604996"/>
								<Node id="8" defaultChild="16">
									<SimplePredicate field="ISC_IN_CNT_PAST_WEEK" operator="lessThan" value="50876.0"/>
									<Node id="16" defaultChild="32">
										<SimplePredicate field="ISC_IN_CNT_PAST_3_DAYS" operator="lessThan" value="10105.0"/>
										<Node id="32" score="0.20337975">
											<SimplePredicate field="DIS" operator="lessThan" value="25.619999"/>
										</Node>
										<Node id="33" score="0.15349804">
											<SimplePredicate field="DIS" operator="greaterOrEqual" value="25.619999"/>
										</Node>
									</Node>
									<Node id="17" defaultChild="34">
										<SimplePredicate field="ISC_IN_CNT_PAST_3_DAYS" operator="greaterOrEqual" value="10105.0"/>
										<Node id="34" score="0.23773015">
											<SimplePredicate field="ISC_IN_CNT_PAST_WEEK" operator="lessThan" value="43233.0"/>
										</Node>
										<Node id="35" score="0.21553575">
											<SimplePredicate field="ISC_IN_CNT_PAST_WEEK" operator="greaterOrEqual" value="43233.0"/>
										</Node>
									</Node>
								</Node>
								<Node id="9" defaultChild="18">
									<SimplePredicate field="ISC_IN_CNT_PAST_WEEK" operator="greaterOrEqual" value="50876.0"/>
									<Node id="18" defaultChild="36">
										<SimplePredicate field="ISC_IN_CNT_PAST_WEEK" operator="lessThan" value="142180.5"/>
										<Node id="36" score="0.19420369">
											<SimplePredicate field="ISC_IN_CNT_PAST_WEEK" operator="lessThan" value="66333.0"/>
										</Node>
										<Node id="37" score="0.17204408">
											<SimplePredicate field="ISC_IN_CNT_PAST_WEEK" operator="greaterOrEqual" value="66333.0"/>
										</Node>
									</Node>
									<Node id="19" defaultChild="38">
										<SimplePredicate field="ISC_IN_CNT_PAST_WEEK" operator="greaterOrEqual" value="142180.5"/>
										<Node id="38" score="0.21160285">
											<SimplePredicate field="ISC_IN_CNT_PAST_WEEK" operator="lessThan" value="147676.0"/>
										</Node>
										<Node id="39" score="0.23642944">
											<SimplePredicate field="ISC_IN_CNT_PAST_WEEK" operator="greaterOrEqual" value="147676.0"/>
										</Node>
									</Node>
								</Node>
							</Node>
							<Node id="5" defaultChild="10">
								<SimplePredicate field="DIS" operator="greaterOrEqual" value="81.604996"/>
								<Node id="10" defaultChild="20">
									<SimplePredicate field="ISC_IN_CNT_PAST_WEEK" operator="lessThan" value="65266.0"/>
									<Node id="20" defaultChild="40">
										<SimplePredicate field="ISC_IN_CNT_PAST_3_DAYS" operator="lessThan" value="17304.5"/>
										<Node id="40" score="0.21765065">
											<SimplePredicate field="DIS" operator="lessThan" value="535.92"/>
										</Node>
										<Node id="41" score="0.24725106">
											<SimplePredicate field="DIS" operator="greaterOrEqual" value="535.92"/>
										</Node>
									</Node>
									<Node id="21" defaultChild="42">
										<SimplePredicate field="ISC_IN_CNT_PAST_3_DAYS" operator="greaterOrEqual" value="17304.5"/>
										<Node id="42" score="0.23635252">
											<SimplePredicate field="DIS" operator="lessThan" value="285.37"/>
										</Node>
										<Node id="43" score="0.26186535">
											<SimplePredicate field="DIS" operator="greaterOrEqual" value="285.37"/>
										</Node>
									</Node>
								</Node>
								<Node id="11" defaultChild="22">
									<SimplePredicate field="ISC_IN_CNT_PAST_WEEK" operator="greaterOrEqual" value="65266.0"/>
									<Node id="22" defaultChild="44">
										<SimplePredicate field="ISC_IN_CNT_PAST_WEEK" operator="lessThan" value="142180.5"/>
										<Node id="44" score="0.20464194">
											<SimplePredicate field="DIS" operator="lessThan" value="486.46002"/>
										</Node>
										<Node id="45" score="0.23313192">
											<SimplePredicate field="DIS" operator="greaterOrEqual" value="486.46002"/>
										</Node>
									</Node>
									<Node id="23" defaultChild="46">
										<SimplePredicate field="ISC_IN_CNT_PAST_WEEK" operator="greaterOrEqual" value="142180.5"/>
										<Node id="46" score="0.24202518">
											<SimplePredicate field="DIS" operator="lessThan" value="493.185"/>
										</Node>
										<Node id="47" score="0.29737929">
											<SimplePredicate field="DIS" operator="greaterOrEqual" value="493.185"/>
										</Node>
									</Node>
								</Node>
							</Node>
						</Node>
						<Node id="3" defaultChild="6">
							<SimplePredicate field="DIS" operator="greaterOrEqual" value="587.855"/>
							<Node id="6" defaultChild="12">
								<SimplePredicate field="ISC_IN_CNT_PAST_WEEK" operator="lessThan" value="142180.5"/>
								<Node id="12" defaultChild="24">
									<SimplePredicate field="DIS" operator="lessThan" value="8341.035"/>
									<Node id="24" defaultChild="48">
										<SimplePredicate field="DIS" operator="lessThan" value="1707.52"/>
										<Node id="48" score="0.2992453">
											<SimplePredicate field="ISC_IN_CNT_PAST_WEEK" operator="lessThan" value="66333.0"/>
										</Node>
										<Node id="49" score="0.2682608">
											<SimplePredicate field="ISC_IN_CNT_PAST_WEEK" operator="greaterOrEqual" value="66333.0"/>
										</Node>
									</Node>
									<Node id="25" defaultChild="50">
										<SimplePredicate field="DIS" operator="greaterOrEqual" value="1707.52"/>
										<Node id="50" score="0.32907477">
											<SimplePredicate field="ISC_IN_CNT_PAST_WEEK" operator="lessThan" value="66758.0"/>
										</Node>
										<Node id="51" score="0.3010552">
											<SimplePredicate field="ISC_IN_CNT_PAST_WEEK" operator="greaterOrEqual" value="66758.0"/>
										</Node>
									</Node>
								</Node>
								<Node id="13" defaultChild="26">
									<SimplePredicate field="DIS" operator="greaterOrEqual" value="8341.035"/>
									<Node id="26" defaultChild="52">
										<SimplePredicate field="DIS" operator="lessThan" value="9292.58"/>
										<Node id="52" score="0.62482774">
											<SimplePredicate field="ISC_IN_CNT_PAST_3_DAYS" operator="lessThan" value="16357.0"/>
										</Node>
										<Node id="53" score="0.85042495">
											<SimplePredicate field="ISC_IN_CNT_PAST_3_DAYS" operator="greaterOrEqual" value="16357.0"/>
										</Node>
									</Node>
									<Node id="27" defaultChild="54">
										<SimplePredicate field="DIS" operator="greaterOrEqual" value="9292.58"/>
										<Node id="54" score="0.4503084">
											<SimplePredicate field="DIS" operator="lessThan" value="9477.89"/>
										</Node>
										<Node id="55" score="0.5767425">
											<SimplePredicate field="DIS" operator="greaterOrEqual" value="9477.89"/>
										</Node>
									</Node>
								</Node>
							</Node>
							<Node id="7" defaultChild="14">
								<SimplePredicate field="ISC_IN_CNT_PAST_WEEK" operator="greaterOrEqual" value="142180.5"/>
								<Node id="14" defaultChild="28">
									<SimplePredicate field="DIS" operator="lessThan" value="1048.835"/>
									<Node id="28" defaultChild="56">
										<SimplePredicate field="DIS" operator="lessThan" value="663.595"/>
										<Node id="56" score="0.2852041">
											<SimplePredicate field="DIS" operator="lessThan" value="658.67004"/>
										</Node>
										<Node id="57" score="0.21563964">
											<SimplePredicate field="DIS" operator="greaterOrEqual" value="658.67004"/>
										</Node>
									</Node>
									<Node id="29" defaultChild="58">
										<SimplePredicate field="DIS" operator="greaterOrEqual" value="663.595"/>
										<Node id="58" score="0.29446885">
											<SimplePredicate field="ISC_IN_CNT_PAST_WEEK" operator="lessThan" value="144954.0"/>
										</Node>
										<Node id="59" score="0.31899655">
											<SimplePredicate field="ISC_IN_CNT_PAST_WEEK" operator="greaterOrEqual" value="144954.0"/>
										</Node>
									</Node>
								</Node>
								<Node id="15" defaultChild="30">
									<SimplePredicate field="DIS" operator="greaterOrEqual" value="1048.835"/>
									<Node id="30" defaultChild="60">
										<SimplePredicate field="DIS" operator="lessThan" value="2846.25"/>
										<Node id="60" score="0.34226814">
											<SimplePredicate field="ISC_IN_CNT_PAST_WEEK" operator="lessThan" value="147676.0"/>
										</Node>
										<Node id="61" score="0.37094995">
											<SimplePredicate field="ISC_IN_CNT_PAST_WEEK" operator="greaterOrEqual" value="147676.0"/>
										</Node>
									</Node>
									<Node id="31" defaultChild="62">
										<SimplePredicate field="DIS" operator="greaterOrEqual" value="2846.25"/>
										<Node id="62" score="0.25858137">
											<SimplePredicate field="DIS" operator="lessThan" value="3104.21"/>
										</Node>
										<Node id="63" score="0.3191969">
											<SimplePredicate field="DIS" operator="greaterOrEqual" value="3104.21"/>
										</Node>
									</Node>
								</Node>
							</Node>
						</Node>
					</Node>
				</TreeModel>
			</Segment>
			<Segment id="5">
				<True/>
				<TreeModel functionName="regression" missingValueStrategy="defaultChild" splitCharacteristic="binarySplit" x-mathContext="float">
					<MiningSchema>
						<MiningField name="ISC"/>
						<MiningField name="ISC_IN_CNT_PAST_3_DAYS"/>
						<MiningField name="ISC_IN_CNT_PAST_WEEK"/>
					</MiningSchema>
					<Node id="1" defaultChild="2">
						<True/>
						<Node id="2" defaultChild="4">
							<SimplePredicate field="ISC" operator="lessThan" value="1.5"/>
							<Node id="4" defaultChild="8">
								<SimplePredicate field="ISC_IN_CNT_PAST_WEEK" operator="lessThan" value="91191.0"/>
								<Node id="8" defaultChild="16">
									<SimplePredicate field="ISC_IN_CNT_PAST_WEEK" operator="lessThan" value="74411.0"/>
									<Node id="16" defaultChild="30">
										<SimplePredicate field="ISC_IN_CNT_PAST_3_DAYS" operator="lessThan" value="33825.5"/>
										<Node id="30" score="0.18865675">
											<SimplePredicate field="ISC_IN_CNT_PAST_WEEK" operator="lessThan" value="66719.0"/>
										</Node>
										<Node id="31" score="0.20114902">
											<SimplePredicate field="ISC_IN_CNT_PAST_WEEK" operator="greaterOrEqual" value="66719.0"/>
										</Node>
									</Node>
									<Node id="17" score="0.2150601">
										<SimplePredicate field="ISC_IN_CNT_PAST_3_DAYS" operator="greaterOrEqual" value="33825.5"/>
									</Node>
								</Node>
								<Node id="9" defaultChild="18">
									<SimplePredicate field="ISC_IN_CNT_PAST_WEEK" operator="greaterOrEqual" value="74411.0"/>
									<Node id="18" defaultChild="32">
										<SimplePredicate field="ISC_IN_CNT_PAST_3_DAYS" operator="lessThan" value="41373.5"/>
										<Node id="32" score="0.21469645">
											<SimplePredicate field="ISC_IN_CNT_PAST_3_DAYS" operator="lessThan" value="32608.5"/>
										</Node>
										<Node id="33" score="0.22791778">
											<SimplePredicate field="ISC_IN_CNT_PAST_3_DAYS" operator="greaterOrEqual" value="32608.5"/>
										</Node>
									</Node>
									<Node id="19" defaultChild="34">
										<SimplePredicate field="ISC_IN_CNT_PAST_3_DAYS" operator="greaterOrEqual" value="41373.5"/>
										<Node id="34" score="0.1902134">
											<SimplePredicate field="ISC_IN_CNT_PAST_3_DAYS" operator="lessThan" value="41908.5"/>
										</Node>
										<Node id="35" score="0.21388736">
											<SimplePredicate field="ISC_IN_CNT_PAST_3_DAYS" operator="greaterOrEqual" value="41908.5"/>
										</Node>
									</Node>
								</Node>
							</Node>
							<Node id="5" defaultChild="10">
								<SimplePredicate field="ISC_IN_CNT_PAST_WEEK" operator="greaterOrEqual" value="91191.0"/>
								<Node id="10" defaultChild="20">
									<SimplePredicate field="ISC_IN_CNT_PAST_3_DAYS" operator="lessThan" value="46793.5"/>
									<Node id="20" defaultChild="36">
										<SimplePredicate field="ISC_IN_CNT_PAST_3_DAYS" operator="lessThan" value="33000.0"/>
										<Node id="36" score="0.22880308">
											<SimplePredicate field="ISC_IN_CNT_PAST_3_DAYS" operator="lessThan" value="31783.5"/>
										</Node>
										<Node id="37" score="0.21584402">
											<SimplePredicate field="ISC_IN_CNT_PAST_3_DAYS" operator="greaterOrEqual" value="31783.5"/>
										</Node>
									</Node>
									<Node id="21" defaultChild="38">
										<SimplePredicate field="ISC_IN_CNT_PAST_3_DAYS" operator="greaterOrEqual" value="33000.0"/>
										<Node id="38" score="0.18522978">
											<SimplePredicate field="ISC_IN_CNT_PAST_3_DAYS" operator="lessThan" value="33966.5"/>
										</Node>
										<Node id="39" score="0.2019475">
											<SimplePredicate field="ISC_IN_CNT_PAST_3_DAYS" operator="greaterOrEqual" value="33966.5"/>
										</Node>
									</Node>
								</Node>
								<Node id="11" defaultChild="22">
									<SimplePredicate field="ISC_IN_CNT_PAST_3_DAYS" operator="greaterOrEqual" value="46793.5"/>
									<Node id="22" score="0.1993497">
										<SimplePredicate field="ISC_IN_CNT_PAST_WEEK" operator="lessThan" value="93443.5"/>
									</Node>
									<Node id="23" defaultChild="40">
										<SimplePredicate field="ISC_IN_CNT_PAST_WEEK" operator="greaterOrEqual" value="93443.5"/>
										<Node id="40" score="0.23259068">
											<SimplePredicate field="ISC_IN_CNT_PAST_WEEK" operator="lessThan" value="94941.5"/>
										</Node>
										<Node id="41" score="0.21375182">
											<SimplePredicate field="ISC_IN_CNT_PAST_WEEK" operator="greaterOrEqual" value="94941.5"/>
										</Node>
									</Node>
								</Node>
							</Node>
						</Node>
						<Node id="3" defaultChild="6">
							<SimplePredicate field="ISC" operator="greaterOrEqual" value="1.5"/>
							<Node id="6" defaultChild="12">
								<SimplePredicate field="ISC_IN_CNT_PAST_WEEK" operator="lessThan" value="143796.5"/>
								<Node id="12" defaultChild="24">
									<SimplePredicate field="ISC_IN_CNT_PAST_3_DAYS" operator="lessThan" value="13038.0"/>
									<Node id="24" defaultChild="42">
										<SimplePredicate field="ISC_IN_CNT_PAST_3_DAYS" operator="lessThan" value="9929.0"/>
										<Node id="42" score="0.20507868">
											<SimplePredicate field="ISC_IN_CNT_PAST_3_DAYS" operator="lessThan" value="4694.5"/>
										</Node>
										<Node id="43" score="0.22972505">
											<SimplePredicate field="ISC_IN_CNT_PAST_3_DAYS" operator="greaterOrEqual" value="4694.5"/>
										</Node>
									</Node>
									<Node id="25" defaultChild="44">
										<SimplePredicate field="ISC_IN_CNT_PAST_3_DAYS" operator="greaterOrEqual" value="9929.0"/>
										<Node id="44" score="0.19495843">
											<SimplePredicate field="ISC_IN_CNT_PAST_3_DAYS" operator="lessThan" value="12438.5"/>
										</Node>
										<Node id="45" score="0.22747217">
											<SimplePredicate field="ISC_IN_CNT_PAST_3_DAYS" operator="greaterOrEqual" value="12438.5"/>
										</Node>
									</Node>
								</Node>
								<Node id="13" defaultChild="26">
									<SimplePredicate field="ISC_IN_CNT_PAST_3_DAYS" operator="greaterOrEqual" value="13038.0"/>
									<Node id="26" defaultChild="46">
										<SimplePredicate field="ISC_IN_CNT_PAST_WEEK" operator="lessThan" value="103953.0"/>
										<Node id="46" score="0.24710481">
											<SimplePredicate field="ISC_IN_CNT_PAST_3_DAYS" operator="lessThan" value="42851.0"/>
										</Node>
										<Node id="47" score="0.27829102">
											<SimplePredicate field="ISC_IN_CNT_PAST_3_DAYS" operator="greaterOrEqual" value="42851.0"/>
										</Node>
									</Node>
									<Node id="27" defaultChild="48">
										<SimplePredicate field="ISC_IN_CNT_PAST_WEEK" operator="greaterOrEqual" value="103953.0"/>
										<Node id="48" score="0.21582">
											<SimplePredicate field="ISC_IN_CNT_PAST_3_DAYS" operator="lessThan" value="52987.0"/>
										</Node>
										<Node id="49" score="0.24467476">
											<SimplePredicate field="ISC_IN_CNT_PAST_3_DAYS" operator="greaterOrEqual" value="52987.0"/>
										</Node>
									</Node>
								</Node>
							</Node>
							<Node id="7" defaultChild="14">
								<SimplePredicate field="ISC_IN_CNT_PAST_WEEK" operator="greaterOrEqual" value="143796.5"/>
								<Node id="14" score="0.20136793">
									<SimplePredicate field="ISC_IN_CNT_PAST_3_DAYS" operator="lessThan" value="56014.0"/>
								</Node>
								<Node id="15" defaultChild="28">
									<SimplePredicate field="ISC_IN_CNT_PAST_3_DAYS" operator="greaterOrEqual" value="56014.0"/>
									<Node id="28" defaultChild="50">
										<SimplePredicate field="ISC_IN_CNT_PAST_WEEK" operator="lessThan" value="147676.0"/>
										<Node id="50" score="0.27093336">
											<SimplePredicate field="ISC_IN_CNT_PAST_WEEK" operator="lessThan" value="146787.0"/>
										</Node>
										<Node id="51" score="0.22845459">
											<SimplePredicate field="ISC_IN_CNT_PAST_WEEK" operator="greaterOrEqual" value="146787.0"/>
										</Node>
									</Node>
									<Node id="29" defaultChild="52">
										<SimplePredicate field="ISC_IN_CNT_PAST_WEEK" operator="greaterOrEqual" value="147676.0"/>
										<Node id="52" score="0.30856407">
											<SimplePredicate field="ISC_IN_CNT_PAST_3_DAYS" operator="lessThan" value="63114.0"/>
										</Node>
										<Node id="53" score="0.2748916">
											<SimplePredicate field="ISC_IN_CNT_PAST_3_DAYS" operator="greaterOrEqual" value="63114.0"/>
										</Node>
									</Node>
								</Node>
							</Node>
						</Node>
					</Node>
				</TreeModel>
			</Segment>
			<Segment id="6">
				<True/>
				<TreeModel functionName="regression" missingValueStrategy="defaultChild" splitCharacteristic="binarySplit" x-mathContext="float">
					<MiningSchema>
						<MiningField name="DIS"/>
						<MiningField name="ISC_IN_CNT_PAST_3_DAYS"/>
						<MiningField name="ISC_IN_CNT_PAST_WEEK"/>
					</MiningSchema>
					<Node id="1" defaultChild="2">
						<True/>
						<Node id="2" defaultChild="4">
							<SimplePredicate field="DIS" operator="lessThan" value="592.225"/>
							<Node id="4" defaultChild="8">
								<SimplePredicate field="DIS" operator="lessThan" value="81.604996"/>
								<Node id="8" defaultChild="16">
									<SimplePredicate field="ISC_IN_CNT_PAST_WEEK" operator="lessThan" value="50876.0"/>
									<Node id="16" defaultChild="32">
										<SimplePredicate field="ISC_IN_CNT_PAST_3_DAYS" operator="lessThan" value="12438.5"/>
										<Node id="32" score="0.1823201">
											<SimplePredicate field="DIS" operator="lessThan" value="12.52"/>
										</Node>
										<Node id="33" score="0.12798798">
											<SimplePredicate field="DIS" operator="greaterOrEqual" value="12.52"/>
										</Node>
									</Node>
									<Node id="17" defaultChild="34">
										<SimplePredicate field="ISC_IN_CNT_PAST_3_DAYS" operator="greaterOrEqual" value="12438.5"/>
										<Node id="34" score="0.1960121">
											<SimplePredicate field="ISC_IN_CNT_PAST_WEEK" operator="lessThan" value="43233.0"/>
										</Node>
										<Node id="35" score="0.17054501">
											<SimplePredicate field="ISC_IN_CNT_PAST_WEEK" operator="greaterOrEqual" value="43233.0"/>
										</Node>
									</Node>
								</Node>
								<Node id="9" defaultChild="18">
									<SimplePredicate field="ISC_IN_CNT_PAST_WEEK" operator="greaterOrEqual" value="50876.0"/>
									<Node id="18" defaultChild="36">
										<SimplePredicate field="ISC_IN_CNT_PAST_3_DAYS" operator="lessThan" value="61243.5"/>
										<Node id="36" score="0.15151851">
											<SimplePredicate field="ISC_IN_CNT_PAST_WEEK" operator="lessThan" value="66333.0"/>
										</Node>
										<Node id="37" score="0.13019788">
											<SimplePredicate field="ISC_IN_CNT_PAST_WEEK" operator="greaterOrEqual" value="66333.0"/>
										</Node>
									</Node>
									<Node id="19" defaultChild="38">
										<SimplePredicate field="ISC_IN_CNT_PAST_3_DAYS" operator="greaterOrEqual" value="61243.5"/>
										<Node id="38" score="0.23310867">
											<SimplePredicate field="ISC_IN_CNT_PAST_WEEK" operator="lessThan" value="130776.5"/>
										</Node>
										<Node id="39" score="0.16951613">
											<SimplePredicate field="ISC_IN_CNT_PAST_WEEK" operator="greaterOrEqual" value="130776.5"/>
										</Node>
									</Node>
								</Node>
							</Node>
							<Node id="5" defaultChild="10">
								<SimplePredicate field="DIS" operator="greaterOrEqual" value="81.604996"/>
								<Node id="10" defaultChild="20">
									<SimplePredicate field="ISC_IN_CNT_PAST_WEEK" operator="lessThan" value="66333.0"/>
									<Node id="20" defaultChild="40">
										<SimplePredicate field="ISC_IN_CNT_PAST_3_DAYS" operator="lessThan" value="16572.5"/>
										<Node id="40" score="0.170586">
											<SimplePredicate field="DIS" operator="lessThan" value="518.17004"/>
										</Node>
										<Node id="41" score="0.20058966">
											<SimplePredicate field="DIS" operator="greaterOrEqual" value="518.17004"/>
										</Node>
									</Node>
									<Node id="21" defaultChild="42">
										<SimplePredicate field="ISC_IN_CNT_PAST_3_DAYS" operator="greaterOrEqual" value="16572.5"/>
										<Node id="42" score="0.18731554">
											<SimplePredicate field="DIS" operator="lessThan" value="285.37"/>
										</Node>
										<Node id="43" score="0.21042576">
											<SimplePredicate field="DIS" operator="greaterOrEqual" value="285.37"/>
										</Node>
									</Node>
								</Node>
								<Node id="11" defaultChild="22">
									<SimplePredicate field="ISC_IN_CNT_PAST_WEEK" operator="greaterOrEqual" value="66333.0"/>
									<Node id="22" defaultChild="44">
										<SimplePredicate field="ISC_IN_CNT_PAST_WEEK" operator="lessThan" value="142180.5"/>
										<Node id="44" score="0.16131693">
											<SimplePredicate field="DIS" operator="lessThan" value="487.54"/>
										</Node>
										<Node id="45" score="0.18805526">
											<SimplePredicate field="DIS" operator="greaterOrEqual" value="487.54"/>
										</Node>
									</Node>
									<Node id="23" defaultChild="46">
										<SimplePredicate field="ISC_IN_CNT_PAST_WEEK" operator="greaterOrEqual" value="142180.5"/>
										<Node id="46" score="0.18914466">
											<SimplePredicate field="DIS" operator="lessThan" value="493.185"/>
										</Node>
										<Node id="47" score="0.2375834">
											<SimplePredicate field="DIS" operator="greaterOrEqual" value="493.185"/>
										</Node>
									</Node>
								</Node>
							</Node>
						</Node>
						<Node id="3" defaultChild="6">
							<SimplePredicate field="DIS" operator="greaterOrEqual" value="592.225"/>
							<Node id="6" defaultChild="12">
								<SimplePredicate field="ISC_IN_CNT_PAST_WEEK" operator="lessThan" value="142180.5"/>
								<Node id="12" defaultChild="24">
									<SimplePredicate field="DIS" operator="lessThan" value="8341.035"/>
									<Node id="24" defaultChild="48">
										<SimplePredicate field="DIS" operator="lessThan" value="1706.62"/>
										<Node id="48" score="0.24609073">
											<SimplePredicate field="ISC_IN_CNT_PAST_WEEK" operator="lessThan" value="66333.0"/>
										</Node>
										<Node id="49" score="0.21980385">
											<SimplePredicate field="ISC_IN_CNT_PAST_WEEK" operator="greaterOrEqual" value="66333.0"/>
										</Node>
									</Node>
									<Node id="25" defaultChild="50">
										<SimplePredicate field="DIS" operator="greaterOrEqual" value="1706.62"/>
										<Node id="50" score="0.26797312">
											<SimplePredicate field="ISC_IN_CNT_PAST_WEEK" operator="lessThan" value="91341.5"/>
										</Node>
										<Node id="51" score="0.24545585">
											<SimplePredicate field="ISC_IN_CNT_PAST_WEEK" operator="greaterOrEqual" value="91341.5"/>
										</Node>
									</Node>
								</Node>
								<Node id="13" defaultChild="26">
									<SimplePredicate field="DIS" operator="greaterOrEqual" value="8341.035"/>
									<Node id="26" score="0.7156492">
										<SimplePredicate field="DIS" operator="lessThan" value="9292.58"/>
									</Node>
									<Node id="27" defaultChild="52">
										<SimplePredicate field="DIS" operator="greaterOrEqual" value="9292.58"/>
										<Node id="52" score="0.39666483">
											<SimplePredicate field="DIS" operator="lessThan" value="9456.205"/>
										</Node>
										<Node id="53" score="0.49609515">
											<SimplePredicate field="DIS" operator="greaterOrEqual" value="9456.205"/>
										</Node>
									</Node>
								</Node>
							</Node>
							<Node id="7" defaultChild="14">
								<SimplePredicate field="ISC_IN_CNT_PAST_WEEK" operator="greaterOrEqual" value="142180.5"/>
								<Node id="14" defaultChild="28">
									<SimplePredicate field="DIS" operator="lessThan" value="1048.99"/>
									<Node id="28" defaultChild="54">
										<SimplePredicate field="ISC_IN_CNT_PAST_WEEK" operator="lessThan" value="144954.0"/>
										<Node id="54" score="0.19142269">
											<SimplePredicate field="DIS" operator="lessThan" value="662.63"/>
										</Node>
										<Node id="55" score="0.23694932">
											<SimplePredicate field="DIS" operator="greaterOrEqual" value="662.63"/>
										</Node>
									</Node>
									<Node id="29" defaultChild="56">
										<SimplePredicate field="ISC_IN_CNT_PAST_WEEK" operator="greaterOrEqual" value="144954.0"/>
										<Node id="56" score="0.2609507">
											<SimplePredicate field="ISC_IN_CNT_PAST_WEEK" operator="lessThan" value="165610.0"/>
										</Node>
										<Node id="57" score="0.24158798">
											<SimplePredicate field="ISC_IN_CNT_PAST_WEEK" operator="greaterOrEqual" value="165610.0"/>
										</Node>
									</Node>
								</Node>
								<Node id="15" defaultChild="30">
									<SimplePredicate field="DIS" operator="greaterOrEqual" value="1048.99"/>
									<Node id="30" defaultChild="58">
										<SimplePredicate field="DIS" operator="lessThan" value="2846.25"/>
										<Node id="58" score="0.28305855">
											<SimplePredicate field="ISC_IN_CNT_PAST_WEEK" operator="lessThan" value="147676.0"/>
										</Node>
										<Node id="59" score="0.30498475">
											<SimplePredicate field="ISC_IN_CNT_PAST_WEEK" operator="greaterOrEqual" value="147676.0"/>
										</Node>
									</Node>
									<Node id="31" defaultChild="60">
										<SimplePredicate field="DIS" operator="greaterOrEqual" value="2846.25"/>
										<Node id="60" score="0.26571918">
											<SimplePredicate field="ISC_IN_CNT_PAST_WEEK" operator="lessThan" value="180431.5"/>
										</Node>
										<Node id="61" score="0.22547005">
											<SimplePredicate field="ISC_IN_CNT_PAST_WEEK" operator="greaterOrEqual" value="180431.5"/>
										</Node>
									</Node>
								</Node>
							</Node>
						</Node>
					</Node>
				</TreeModel>
			</Segment>
			<Segment id="7">
				<True/>
				<TreeModel functionName="regression" missingValueStrategy="defaultChild" splitCharacteristic="binarySplit" x-mathContext="float">
					<MiningSchema>
						<MiningField name="ZIP_TO"/>
						<MiningField name="ISC_IN_CNT_PAST_DAY"/>
						<MiningField name="ISC_IN_CNT_PAST_WEEK"/>
					</MiningSchema>
					<Node id="1" defaultChild="2">
						<True/>
						<Node id="2" defaultChild="4">
							<SimplePredicate field="ISC_IN_CNT_PAST_WEEK" operator="lessThan" value="142180.5"/>
							<Node id="4" defaultChild="8">
								<SimplePredicate field="ZIP_TO" operator="lessThan" value="968.5"/>
								<Node id="8" defaultChild="16">
									<SimplePredicate field="ZIP_TO" operator="lessThan" value="899.0"/>
									<Node id="16" defaultChild="32">
										<SimplePredicate field="ISC_IN_CNT_PAST_WEEK" operator="lessThan" value="66333.0"/>
										<Node id="32" score="0.1749482">
											<SimplePredicate field="ISC_IN_CNT_PAST_WEEK" operator="lessThan" value="27426.0"/>
										</Node>
										<Node id="33" score="0.23703606">
											<SimplePredicate field="ISC_IN_CNT_PAST_WEEK" operator="greaterOrEqual" value="27426.0"/>
										</Node>
									</Node>
									<Node id="17" defaultChild="34">
										<SimplePredicate field="ISC_IN_CNT_PAST_WEEK" operator="greaterOrEqual" value="66333.0"/>
										<Node id="34" score="0.19479814">
											<SimplePredicate field="ZIP_TO" operator="lessThan" value="409.5"/>
										</Node>
										<Node id="35" score="0.16513216">
											<SimplePredicate field="ZIP_TO" operator="greaterOrEqual" value="409.5"/>
										</Node>
									</Node>
								</Node>
								<Node id="9" defaultChild="18">
									<SimplePredicate field="ZIP_TO" operator="greaterOrEqual" value="899.0"/>
									<Node id="18" defaultChild="36">
										<SimplePredicate field="ZIP_TO" operator="lessThan" value="921.5"/>
										<Node id="36" score="0.14314143">
											<SimplePredicate field="ISC_IN_CNT_PAST_DAY" operator="lessThan" value="14142.5"/>
										</Node>
										<Node id="37" score="0.18986802">
											<SimplePredicate field="ISC_IN_CNT_PAST_DAY" operator="greaterOrEqual" value="14142.5"/>
										</Node>
									</Node>
									<Node id="19" defaultChild="38">
										<SimplePredicate field="ZIP_TO" operator="greaterOrEqual" value="921.5"/>
										<Node id="38" score="0.24354112">
											<SimplePredicate field="ZIP_TO" operator="lessThan" value="925.5"/>
										</Node>
										<Node id="39" score="0.1683483">
											<SimplePredicate field="ZIP_TO" operator="greaterOrEqual" value="925.5"/>
										</Node>
									</Node>
								</Node>
							</Node>
							<Node id="5" defaultChild="10">
								<SimplePredicate field="ZIP_TO" operator="greaterOrEqual" value="968.5"/>
								<Node id="10" defaultChild="20">
									<SimplePredicate field="ZIP_TO" operator="lessThan" value="969.5"/>
									<Node id="20" defaultChild="40">
										<SimplePredicate field="ISC_IN_CNT_PAST_DAY" operator="lessThan" value="6698.0"/>
										<Node id="40" score="0.4462889">
											<SimplePredicate field="ISC_IN_CNT_PAST_DAY" operator="lessThan" value="6165.0"/>
										</Node>
										<Node id="41" score="0.30936125">
											<SimplePredicate field="ISC_IN_CNT_PAST_DAY" operator="greaterOrEqual" value="6165.0"/>
										</Node>
									</Node>
									<Node id="21" defaultChild="42">
										<SimplePredicate field="ISC_IN_CNT_PAST_DAY" operator="greaterOrEqual" value="6698.0"/>
										<Node id="42" score="0.44474658">
											<SimplePredicate field="ISC_IN_CNT_PAST_WEEK" operator="lessThan" value="47239.0"/>
										</Node>
										<Node id="43" score="0.55769837">
											<SimplePredicate field="ISC_IN_CNT_PAST_WEEK" operator="greaterOrEqual" value="47239.0"/>
										</Node>
									</Node>
								</Node>
								<Node id="11" defaultChild="22">
									<SimplePredicate field="ZIP_TO" operator="greaterOrEqual" value="969.5"/>
									<Node id="22" defaultChild="44">
										<SimplePredicate field="ZIP_TO" operator="lessThan" value="987.0"/>
										<Node id="44" score="0.23094983">
											<SimplePredicate field="ZIP_TO" operator="lessThan" value="979.5"/>
										</Node>
										<Node id="45" score="0.19644134">
											<SimplePredicate field="ZIP_TO" operator="greaterOrEqual" value="979.5"/>
										</Node>
									</Node>
									<Node id="23" defaultChild="46">
										<SimplePredicate field="ZIP_TO" operator="greaterOrEqual" value="987.0"/>
										<Node id="46" score="0.2226578">
											<SimplePredicate field="ISC_IN_CNT_PAST_WEEK" operator="lessThan" value="49794.5"/>
										</Node>
										<Node id="47" score="0.2927455">
											<SimplePredicate field="ISC_IN_CNT_PAST_WEEK" operator="greaterOrEqual" value="49794.5"/>
										</Node>
									</Node>
								</Node>
							</Node>
						</Node>
						<Node id="3" defaultChild="6">
							<SimplePredicate field="ISC_IN_CNT_PAST_WEEK" operator="greaterOrEqual" value="142180.5"/>
							<Node id="6" defaultChild="12">
								<SimplePredicate field="ZIP_TO" operator="lessThan" value="275.5"/>
								<Node id="12" defaultChild="24">
									<SimplePredicate field="ZIP_TO" operator="lessThan" value="99.0"/>
									<Node id="24" defaultChild="48">
										<SimplePredicate field="ZIP_TO" operator="lessThan" value="40.5"/>
										<Node id="48" score="0.14395188">
											<SimplePredicate field="ZIP_TO" operator="lessThan" value="13.5"/>
										</Node>
										<Node id="49" score="0.17329936">
											<SimplePredicate field="ZIP_TO" operator="greaterOrEqual" value="13.5"/>
										</Node>
									</Node>
									<Node id="25" defaultChild="50">
										<SimplePredicate field="ZIP_TO" operator="greaterOrEqual" value="40.5"/>
										<Node id="50" score="0.21511069">
											<SimplePredicate field="ZIP_TO" operator="lessThan" value="88.5"/>
										</Node>
										<Node id="51" score="0.26530844">
											<SimplePredicate field="ZIP_TO" operator="greaterOrEqual" value="88.5"/>
										</Node>
									</Node>
								</Node>
								<Node id="13" defaultChild="26">
									<SimplePredicate field="ZIP_TO" operator="greaterOrEqual" value="99.0"/>
									<Node id="26" defaultChild="52">
										<SimplePredicate field="ZIP_TO" operator="lessThan" value="148.5"/>
										<Node id="52" score="0.16344903">
											<SimplePredicate field="ZIP_TO" operator="lessThan" value="143.5"/>
										</Node>
										<Node id="53" score="0.13521735">
											<SimplePredicate field="ZIP_TO" operator="greaterOrEqual" value="143.5"/>
										</Node>
									</Node>
									<Node id="27" defaultChild="54">
										<SimplePredicate field="ZIP_TO" operator="greaterOrEqual" value="148.5"/>
										<Node id="54" score="0.24294548">
											<SimplePredicate field="ZIP_TO" operator="lessThan" value="164.5"/>
										</Node>
										<Node id="55" score="0.1846629">
											<SimplePredicate field="ZIP_TO" operator="greaterOrEqual" value="164.5"/>
										</Node>
									</Node>
								</Node>
							</Node>
							<Node id="7" defaultChild="14">
								<SimplePredicate field="ZIP_TO" operator="greaterOrEqual" value="275.5"/>
								<Node id="14" defaultChild="28">
									<SimplePredicate field="ZIP_TO" operator="lessThan" value="297.5"/>
									<Node id="28" defaultChild="56">
										<SimplePredicate field="ZIP_TO" operator="lessThan" value="285.5"/>
										<Node id="56" score="0.20807123">
											<SimplePredicate field="ISC_IN_CNT_PAST_WEEK" operator="lessThan" value="144954.0"/>
										</Node>
										<Node id="57" score="0.24646881">
											<SimplePredicate field="ISC_IN_CNT_PAST_WEEK" operator="greaterOrEqual" value="144954.0"/>
										</Node>
									</Node>
									<Node id="29" defaultChild="58">
										<SimplePredicate field="ZIP_TO" operator="greaterOrEqual" value="285.5"/>
										<Node id="58" score="0.17447126">
											<SimplePredicate field="ZIP_TO" operator="lessThan" value="286.5"/>
										</Node>
										<Node id="59" score="0.2208788">
											<SimplePredicate field="ZIP_TO" operator="greaterOrEqual" value="286.5"/>
										</Node>
									</Node>
								</Node>
								<Node id="15" defaultChild="30">
									<SimplePredicate field="ZIP_TO" operator="greaterOrEqual" value="297.5"/>
									<Node id="30" defaultChild="60">
										<SimplePredicate field="ISC_IN_CNT_PAST_DAY" operator="lessThan" value="18581.5"/>
										<Node id="60" score="0.30102727">
											<SimplePredicate field="ZIP_TO" operator="lessThan" value="608.5"/>
										</Node>
										<Node id="61" score="0.26663047">
											<SimplePredicate field="ZIP_TO" operator="greaterOrEqual" value="608.5"/>
										</Node>
									</Node>
									<Node id="31" defaultChild="62">
										<SimplePredicate field="ISC_IN_CNT_PAST_DAY" operator="greaterOrEqual" value="18581.5"/>
										<Node id="62" score="0.25861415">
											<SimplePredicate field="ZIP_TO" operator="lessThan" value="786.5"/>
										</Node>
										<Node id="63" score="0.22028582">
											<SimplePredicate field="ZIP_TO" operator="greaterOrEqual" value="786.5"/>
										</Node>
									</Node>
								</Node>
							</Node>
						</Node>
					</Node>
				</TreeModel>
			</Segment>
			<Segment id="8">
				<True/>
				<TreeModel functionName="regression" missingValueStrategy="defaultChild" splitCharacteristic="binarySplit" x-mathContext="float">
					<MiningSchema>
						<MiningField name="ISC_IN_CNT_PAST_DAY"/>
						<MiningField name="ISC_IN_CNT_PAST_3_DAYS"/>
						<MiningField name="ISC_IN_CNT_PAST_WEEK"/>
					</MiningSchema>
					<Node id="1" defaultChild="2">
						<True/>
						<Node id="2" defaultChild="4">
							<SimplePredicate field="ISC_IN_CNT_PAST_WEEK" operator="lessThan" value="142180.5"/>
							<Node id="4" defaultChild="8">
								<SimplePredicate field="ISC_IN_CNT_PAST_WEEK" operator="lessThan" value="66333.0"/>
								<Node id="8" defaultChild="16">
									<SimplePredicate field="ISC_IN_CNT_PAST_3_DAYS" operator="lessThan" value="16199.0"/>
									<Node id="16" defaultChild="32">
										<SimplePredicate field="ISC_IN_CNT_PAST_WEEK" operator="lessThan" value="44610.5"/>
										<Node id="32" score="0.16479473">
											<SimplePredicate field="ISC_IN_CNT_PAST_3_DAYS" operator="lessThan" value="7823.0"/>
										</Node>
										<Node id="33" score="0.15268348">
											<SimplePredicate field="ISC_IN_CNT_PAST_3_DAYS" operator="greaterOrEqual" value="7823.0"/>
										</Node>
									</Node>
									<Node id="17" defaultChild="34">
										<SimplePredicate field="ISC_IN_CNT_PAST_WEEK" operator="greaterOrEqual" value="44610.5"/>
										<Node id="34" score="0.18534252">
											<SimplePredicate field="ISC_IN_CNT_PAST_WEEK" operator="lessThan" value="46111.5"/>
										</Node>
										<Node id="35" score="0.22227435">
											<SimplePredicate field="ISC_IN_CNT_PAST_WEEK" operator="greaterOrEqual" value="46111.5"/>
										</Node>
									</Node>
								</Node>
								<Node id="9" defaultChild="18">
									<SimplePredicate field="ISC_IN_CNT_PAST_3_DAYS" operator="greaterOrEqual" value="16199.0"/>
									<Node id="18" defaultChild="36">
										<SimplePredicate field="ISC_IN_CNT_PAST_WEEK" operator="lessThan" value="35599.5"/>
										<Node id="36" score="0.25942394">
											<SimplePredicate field="ISC_IN_CNT_PAST_3_DAYS" operator="lessThan" value="18595.5"/>
										</Node>
										<Node id="37" score="0.198984">
											<SimplePredicate field="ISC_IN_CNT_PAST_3_DAYS" operator="greaterOrEqual" value="18595.5"/>
										</Node>
									</Node>
									<Node id="19" defaultChild="38">
										<SimplePredicate field="ISC_IN_CNT_PAST_WEEK" operator="greaterOrEqual" value="35599.5"/>
										<Node id="38" score="0.17985809">
											<SimplePredicate field="ISC_IN_CNT_PAST_DAY" operator="lessThan" value="13989.5"/>
										</Node>
										<Node id="39" score="0.21485762">
											<SimplePredicate field="ISC_IN_CNT_PAST_DAY" operator="greaterOrEqual" value="13989.5"/>
										</Node>
									</Node>
								</Node>
							</Node>
							<Node id="5" defaultChild="10">
								<SimplePredicate field="ISC_IN_CNT_PAST_WEEK" operator="greaterOrEqual" value="66333.0"/>
								<Node id="10" defaultChild="20">
									<SimplePredicate field="ISC_IN_CNT_PAST_3_DAYS" operator="lessThan" value="52987.0"/>
									<Node id="20" defaultChild="40">
										<SimplePredicate field="ISC_IN_CNT_PAST_WEEK" operator="lessThan" value="91341.5"/>
										<Node id="40" score="0.15775317">
											<SimplePredicate field="ISC_IN_CNT_PAST_3_DAYS" operator="lessThan" value="42768.5"/>
										</Node>
										<Node id="41" score="0.19840972">
											<SimplePredicate field="ISC_IN_CNT_PAST_3_DAYS" operator="greaterOrEqual" value="42768.5"/>
										</Node>
									</Node>
									<Node id="21" defaultChild="42">
										<SimplePredicate field="ISC_IN_CNT_PAST_WEEK" operator="greaterOrEqual" value="91341.5"/>
										<Node id="42" score="0.14666902">
											<SimplePredicate field="ISC_IN_CNT_PAST_3_DAYS" operator="lessThan" value="45973.0"/>
										</Node>
										<Node id="43" score="0.15887275">
											<SimplePredicate field="ISC_IN_CNT_PAST_3_DAYS" operator="greaterOrEqual" value="45973.0"/>
										</Node>
									</Node>
								</Node>
								<Node id="11" defaultChild="22">
									<SimplePredicate field="ISC_IN_CNT_PAST_3_DAYS" operator="greaterOrEqual" value="52987.0"/>
									<Node id="22" defaultChild="44">
										<SimplePredicate field="ISC_IN_CNT_PAST_3_DAYS" operator="lessThan" value="54970.0"/>
										<Node id="44" score="0.17865065">
											<SimplePredicate field="ISC_IN_CNT_PAST_DAY" operator="lessThan" value="15625.5"/>
										</Node>
										<Node id="45" score="0.22559153">
											<SimplePredicate field="ISC_IN_CNT_PAST_DAY" operator="greaterOrEqual" value="15625.5"/>
										</Node>
									</Node>
									<Node id="23" defaultChild="46">
										<SimplePredicate field="ISC_IN_CNT_PAST_3_DAYS" operator="greaterOrEqual" value="54970.0"/>
										<Node id="46" score="0.1626197">
											<SimplePredicate field="ISC_IN_CNT_PAST_DAY" operator="lessThan" value="23452.5"/>
										</Node>
										<Node id="47" score="0.1989583">
											<SimplePredicate field="ISC_IN_CNT_PAST_DAY" operator="greaterOrEqual" value="23452.5"/>
										</Node>
									</Node>
								</Node>
							</Node>
						</Node>
						<Node id="3" defaultChild="6">
							<SimplePredicate field="ISC_IN_CNT_PAST_WEEK" operator="greaterOrEqual" value="142180.5"/>
							<Node id="6" defaultChild="12">
								<SimplePredicate field="ISC_IN_CNT_PAST_WEEK" operator="lessThan" value="147676.0"/>
								<Node id="12" defaultChild="24">
									<SimplePredicate field="ISC_IN_CNT_PAST_3_DAYS" operator="lessThan" value="68001.5"/>
									<Node id="24" defaultChild="48">
										<SimplePredicate field="ISC_IN_CNT_PAST_DAY" operator="lessThan" value="19580.0"/>
										<Node id="48" score="0.20968048">
											<SimplePredicate field="ISC_IN_CNT_PAST_DAY" operator="lessThan" value="18912.5"/>
										</Node>
										<Node id="49" score="0.19674963">
											<SimplePredicate field="ISC_IN_CNT_PAST_DAY" operator="greaterOrEqual" value="18912.5"/>
										</Node>
									</Node>
									<Node id="25" defaultChild="50">
										<SimplePredicate field="ISC_IN_CNT_PAST_DAY" operator="greaterOrEqual" value="19580.0"/>
										<Node id="50" score="0.13225748">
											<SimplePredicate field="ISC_IN_CNT_PAST_3_DAYS" operator="lessThan" value="56094.0"/>
										</Node>
										<Node id="51" score="0.1728035">
											<SimplePredicate field="ISC_IN_CNT_PAST_3_DAYS" operator="greaterOrEqual" value="56094.0"/>
										</Node>
									</Node>
								</Node>
								<Node id="13" defaultChild="26">
									<SimplePredicate field="ISC_IN_CNT_PAST_3_DAYS" operator="greaterOrEqual" value="68001.5"/>
									<Node id="26" score="0.21695963">
										<SimplePredicate field="ISC_IN_CNT_PAST_3_DAYS" operator="lessThan" value="68781.5"/>
									</Node>
									<Node id="27" score="0.19893004">
										<SimplePredicate field="ISC_IN_CNT_PAST_3_DAYS" operator="greaterOrEqual" value="68781.5"/>
									</Node>
								</Node>
							</Node>
							<Node id="7" defaultChild="14">
								<SimplePredicate field="ISC_IN_CNT_PAST_WEEK" operator="greaterOrEqual" value="147676.0"/>
								<Node id="14" defaultChild="28">
									<SimplePredicate field="ISC_IN_CNT_PAST_3_DAYS" operator="lessThan" value="63114.0"/>
									<Node id="28" score="0.23474298">
										<SimplePredicate field="ISC_IN_CNT_PAST_WEEK" operator="lessThan" value="152960.5"/>
									</Node>
									<Node id="29" score="0.20053144">
										<SimplePredicate field="ISC_IN_CNT_PAST_WEEK" operator="greaterOrEqual" value="152960.5"/>
									</Node>
								</Node>
								<Node id="15" defaultChild="30">
									<SimplePredicate field="ISC_IN_CNT_PAST_3_DAYS" operator="greaterOrEqual" value="63114.0"/>
									<Node id="30" defaultChild="52">
										<SimplePredicate field="ISC_IN_CNT_PAST_WEEK" operator="lessThan" value="152294.5"/>
										<Node id="52" score="0.15248768">
											<SimplePredicate field="ISC_IN_CNT_PAST_DAY" operator="lessThan" value="21187.5"/>
										</Node>
										<Node id="53" score="0.17855266">
											<SimplePredicate field="ISC_IN_CNT_PAST_DAY" operator="greaterOrEqual" value="21187.5"/>
										</Node>
									</Node>
									<Node id="31" defaultChild="54">
										<SimplePredicate field="ISC_IN_CNT_PAST_WEEK" operator="greaterOrEqual" value="152294.5"/>
										<Node id="54" score="0.19717032">
											<SimplePredicate field="ISC_IN_CNT_PAST_3_DAYS" operator="lessThan" value="71914.0"/>
										</Node>
										<Node id="55" score="0.21069673">
											<SimplePredicate field="ISC_IN_CNT_PAST_3_DAYS" operator="greaterOrEqual" value="71914.0"/>
										</Node>
									</Node>
								</Node>
							</Node>
						</Node>
					</Node>
				</TreeModel>
			</Segment>
			<Segment id="9">
				<True/>
				<TreeModel functionName="regression" missingValueStrategy="defaultChild" splitCharacteristic="binarySplit" x-mathContext="float">
					<MiningSchema>
						<MiningField name="ZIP_TO"/>
						<MiningField name="ISC"/>
						<MiningField name="ISC_IN_CNT_PAST_DAY"/>
					</MiningSchema>
					<Node id="1" defaultChild="2">
						<True/>
						<Node id="2" defaultChild="4">
							<SimplePredicate field="ISC" operator="lessThan" value="1.5"/>
							<Node id="4" defaultChild="8">
								<SimplePredicate field="ZIP_TO" operator="lessThan" value="349.5"/>
								<Node id="8" defaultChild="16">
									<SimplePredicate field="ZIP_TO" operator="lessThan" value="307.5"/>
									<Node id="16" defaultChild="32">
										<SimplePredicate field="ZIP_TO" operator="lessThan" value="143.5"/>
										<Node id="32" score="0.16099171">
											<SimplePredicate field="ZIP_TO" operator="lessThan" value="28.5"/>
										</Node>
										<Node id="33" score="0.18273579">
											<SimplePredicate field="ZIP_TO" operator="greaterOrEqual" value="28.5"/>
										</Node>
									</Node>
									<Node id="17" defaultChild="34">
										<SimplePredicate field="ZIP_TO" operator="greaterOrEqual" value="143.5"/>
										<Node id="34" score="0.16633156">
											<SimplePredicate field="ISC_IN_CNT_PAST_DAY" operator="lessThan" value="20474.0"/>
										</Node>
										<Node id="35" score="0.14039809">
											<SimplePredicate field="ISC_IN_CNT_PAST_DAY" operator="greaterOrEqual" value="20474.0"/>
										</Node>
									</Node>
								</Node>
								<Node id="9" defaultChild="18">
									<SimplePredicate field="ZIP_TO" operator="greaterOrEqual" value="307.5"/>
									<Node id="18" defaultChild="36">
										<SimplePredicate field="ZIP_TO" operator="lessThan" value="331.5"/>
										<Node id="36" score="0.18470189">
											<SimplePredicate field="ZIP_TO" operator="lessThan" value="330.5"/>
										</Node>
										<Node id="37" score="0.2280281">
											<SimplePredicate field="ZIP_TO" operator="greaterOrEqual" value="330.5"/>
										</Node>
									</Node>
									<Node id="19" defaultChild="38">
										<SimplePredicate field="ZIP_TO" operator="greaterOrEqual" value="331.5"/>
										<Node id="38" score="0.16801734">
											<SimplePredicate field="ZIP_TO" operator="lessThan" value="346.5"/>
										</Node>
										<Node id="39" score="0.20525955">
											<SimplePredicate field="ZIP_TO" operator="greaterOrEqual" value="346.5"/>
										</Node>
									</Node>
								</Node>
							</Node>
							<Node id="5" defaultChild="10">
								<SimplePredicate field="ZIP_TO" operator="greaterOrEqual" value="349.5"/>
								<Node id="10" defaultChild="20">
									<SimplePredicate field="ZIP_TO" operator="lessThan" value="764.5"/>
									<Node id="20" defaultChild="40">
										<SimplePredicate field="ZIP_TO" operator="lessThan" value="409.5"/>
										<Node id="40" score="0.125481">
											<SimplePredicate field="ZIP_TO" operator="lessThan" value="372.5"/>
										</Node>
										<Node id="41" score="0.15185283">
											<SimplePredicate field="ZIP_TO" operator="greaterOrEqual" value="372.5"/>
										</Node>
									</Node>
									<Node id="21" defaultChild="42">
										<SimplePredicate field="ZIP_TO" operator="greaterOrEqual" value="409.5"/>
										<Node id="42" score="0.107860185">
											<SimplePredicate field="ZIP_TO" operator="lessThan" value="639.5"/>
										</Node>
										<Node id="43" score="0.12882857">
											<SimplePredicate field="ZIP_TO" operator="greaterOrEqual" value="639.5"/>
										</Node>
									</Node>
								</Node>
								<Node id="11" defaultChild="22">
									<SimplePredicate field="ZIP_TO" operator="greaterOrEqual" value="764.5"/>
									<Node id="22" defaultChild="44">
										<SimplePredicate field="ZIP_TO" operator="lessThan" value="785.5"/>
										<Node id="44" score="0.15049395">
											<SimplePredicate field="ZIP_TO" operator="lessThan" value="783.5"/>
										</Node>
										<Node id="45" score="0.20765749">
											<SimplePredicate field="ZIP_TO" operator="greaterOrEqual" value="783.5"/>
										</Node>
									</Node>
									<Node id="23" defaultChild="46">
										<SimplePredicate field="ZIP_TO" operator="greaterOrEqual" value="785.5"/>
										<Node id="46" score="0.13757542">
											<SimplePredicate field="ZIP_TO" operator="lessThan" value="984.5"/>
										</Node>
										<Node id="47" score="0.17994475">
											<SimplePredicate field="ZIP_TO" operator="greaterOrEqual" value="984.5"/>
										</Node>
									</Node>
								</Node>
							</Node>
						</Node>
						<Node id="3" defaultChild="6">
							<SimplePredicate field="ISC" operator="greaterOrEqual" value="1.5"/>
							<Node id="6" defaultChild="12">
								<SimplePredicate field="ZIP_TO" operator="lessThan" value="269.0"/>
								<Node id="12" defaultChild="24">
									<SimplePredicate field="ZIP_TO" operator="lessThan" value="99.0"/>
									<Node id="24" defaultChild="48">
										<SimplePredicate field="ZIP_TO" operator="lessThan" value="57.5"/>
										<Node id="48" score="0.23368983">
											<SimplePredicate field="ISC_IN_CNT_PAST_DAY" operator="lessThan" value="6811.0"/>
										</Node>
										<Node id="49" score="0.11757355">
											<SimplePredicate field="ISC_IN_CNT_PAST_DAY" operator="greaterOrEqual" value="6811.0"/>
										</Node>
									</Node>
									<Node id="25" defaultChild="50">
										<SimplePredicate field="ZIP_TO" operator="greaterOrEqual" value="57.5"/>
										<Node id="50" score="0.22710216">
											<SimplePredicate field="ISC_IN_CNT_PAST_DAY" operator="lessThan" value="9462.5"/>
										</Node>
										<Node id="51" score="0.16715454">
											<SimplePredicate field="ISC_IN_CNT_PAST_DAY" operator="greaterOrEqual" value="9462.5"/>
										</Node>
									</Node>
								</Node>
								<Node id="13" defaultChild="26">
									<SimplePredicate field="ZIP_TO" operator="greaterOrEqual" value="99.0"/>
									<Node id="26" defaultChild="52">
										<SimplePredicate field="ZIP_TO" operator="lessThan" value="120.5"/>
										<Node id="52" score="0.10321851">
											<SimplePredicate field="ISC" operator="lessThan" value="4.5"/>
										</Node>
										<Node id="53" score="0.26091036">
											<SimplePredicate field="ISC" operator="greaterOrEqual" value="4.5"/>
										</Node>
									</Node>
									<Node id="27" defaultChild="54">
										<SimplePredicate field="ZIP_TO" operator="greaterOrEqual" value="120.5"/>
										<Node id="54" score="0.21481696">
											<SimplePredicate field="ISC_IN_CNT_PAST_DAY" operator="lessThan" value="7085.5"/>
										</Node>
										<Node id="55" score="0.13340075">
											<SimplePredicate field="ISC_IN_CNT_PAST_DAY" operator="greaterOrEqual" value="7085.5"/>
										</Node>
									</Node>
								</Node>
							</Node>
							<Node id="7" defaultChild="14">
								<SimplePredicate field="ZIP_TO" operator="greaterOrEqual" value="269.0"/>
								<Node id="14" defaultChild="28">
									<SimplePredicate field="ZIP_TO" operator="lessThan" value="848.5"/>
									<Node id="28" defaultChild="56">
										<SimplePredicate field="ISC_IN_CNT_PAST_DAY" operator="lessThan" value="3746.0"/>
										<Node id="56" score="0.12578206">
											<SimplePredicate field="ZIP_TO" operator="lessThan" value="372.5"/>
										</Node>
										<Node id="57" score="0.18518302">
											<SimplePredicate field="ZIP_TO" operator="greaterOrEqual" value="372.5"/>
										</Node>
									</Node>
									<Node id="29" defaultChild="58">
										<SimplePredicate field="ISC_IN_CNT_PAST_DAY" operator="greaterOrEqual" value="3746.0"/>
										<Node id="58" score="0.24033287">
											<SimplePredicate field="ISC" operator="lessThan" value="2.5"/>
										</Node>
										<Node id="59" score="0.19395441">
											<SimplePredicate field="ISC" operator="greaterOrEqual" value="2.5"/>
										</Node>
									</Node>
								</Node>
								<Node id="15" defaultChild="30">
									<SimplePredicate field="ZIP_TO" operator="greaterOrEqual" value="848.5"/>
									<Node id="30" defaultChild="60">
										<SimplePredicate field="ZIP_TO" operator="lessThan" value="968.5"/>
										<Node id="60" score="0.16655748">
											<SimplePredicate field="ZIP_TO" operator="lessThan" value="899.0"/>
										</Node>
										<Node id="61" score="0.13380657">
											<SimplePredicate field="ZIP_TO" operator="greaterOrEqual" value="899.0"/>
										</Node>
									</Node>
									<Node id="31" defaultChild="62">
										<SimplePredicate field="ZIP_TO" operator="greaterOrEqual" value="968.5"/>
										<Node id="62" score="0.41057754">
											<SimplePredicate field="ZIP_TO" operator="lessThan" value="969.5"/>
										</Node>
										<Node id="63" score="0.17724942">
											<SimplePredicate field="ZIP_TO" operator="greaterOrEqual" value="969.5"/>
										</Node>
									</Node>
								</Node>
							</Node>
						</Node>
					</Node>
				</TreeModel>
			</Segment>
			<Segment id="10">
				<True/>
				<TreeModel functionName="regression" missingValueStrategy="defaultChild" splitCharacteristic="binarySplit" x-mathContext="float">
					<MiningSchema>
						<MiningField name="DIS"/>
						<MiningField name="ISC_IN_CNT_PAST_DAY"/>
						<MiningField name="ISC_IN_CNT_PAST_3_DAYS"/>
					</MiningSchema>
					<Node id="1" defaultChild="2">
						<True/>
						<Node id="2" defaultChild="4">
							<SimplePredicate field="DIS" operator="lessThan" value="681.26"/>
							<Node id="4" defaultChild="8">
								<SimplePredicate field="DIS" operator="lessThan" value="295.10498"/>
								<Node id="8" defaultChild="16">
									<SimplePredicate field="ISC_IN_CNT_PAST_3_DAYS" operator="lessThan" value="27932.5"/>
									<Node id="16" defaultChild="32">
										<SimplePredicate field="DIS" operator="lessThan" value="81.380005"/>
										<Node id="32" score="0.10226871">
											<SimplePredicate field="ISC_IN_CNT_PAST_DAY" operator="lessThan" value="13820.5"/>
										</Node>
										<Node id="33" score="0.21034637">
											<SimplePredicate field="ISC_IN_CNT_PAST_DAY" operator="greaterOrEqual" value="13820.5"/>
										</Node>
									</Node>
									<Node id="17" defaultChild="34">
										<SimplePredicate field="DIS" operator="greaterOrEqual" value="81.380005"/>
										<Node id="34" score="0.1240795">
											<SimplePredicate field="DIS" operator="lessThan" value="147.01999"/>
										</Node>
										<Node id="35" score="0.10841922">
											<SimplePredicate field="DIS" operator="greaterOrEqual" value="147.01999"/>
										</Node>
									</Node>
								</Node>
								<Node id="9" defaultChild="18">
									<SimplePredicate field="ISC_IN_CNT_PAST_3_DAYS" operator="greaterOrEqual" value="27932.5"/>
									<Node id="18" defaultChild="36">
										<SimplePredicate field="ISC_IN_CNT_PAST_3_DAYS" operator="lessThan" value="64512.0"/>
										<Node id="36" score="0.0748808">
											<SimplePredicate field="DIS" operator="lessThan" value="87.55"/>
										</Node>
										<Node id="37" score="0.09738028">
											<SimplePredicate field="DIS" operator="greaterOrEqual" value="87.55"/>
										</Node>
									</Node>
									<Node id="19" defaultChild="38">
										<SimplePredicate field="ISC_IN_CNT_PAST_3_DAYS" operator="greaterOrEqual" value="64512.0"/>
										<Node id="38" score="0.12157097">
											<SimplePredicate field="ISC_IN_CNT_PAST_DAY" operator="lessThan" value="29133.0"/>
										</Node>
										<Node id="39" score="0.068275414">
											<SimplePredicate field="ISC_IN_CNT_PAST_DAY" operator="greaterOrEqual" value="29133.0"/>
										</Node>
									</Node>
								</Node>
							</Node>
							<Node id="5" defaultChild="10">
								<SimplePredicate field="DIS" operator="greaterOrEqual" value="295.10498"/>
								<Node id="10" defaultChild="20">
									<SimplePredicate field="DIS" operator="lessThan" value="503.655"/>
									<Node id="20" defaultChild="40">
										<SimplePredicate field="ISC_IN_CNT_PAST_3_DAYS" operator="lessThan" value="26449.5"/>
										<Node id="40" score="0.10832252">
											<SimplePredicate field="ISC_IN_CNT_PAST_3_DAYS" operator="lessThan" value="16357.0"/>
										</Node>
										<Node id="41" score="0.14471816">
											<SimplePredicate field="ISC_IN_CNT_PAST_3_DAYS" operator="greaterOrEqual" value="16357.0"/>
										</Node>
									</Node>
									<Node id="21" defaultChild="42">
										<SimplePredicate field="ISC_IN_CNT_PAST_3_DAYS" operator="greaterOrEqual" value="26449.5"/>
										<Node id="42" score="0.10628822">
											<SimplePredicate field="ISC_IN_CNT_PAST_DAY" operator="lessThan" value="23287.5"/>
										</Node>
										<Node id="43" score="0.12951545">
											<SimplePredicate field="ISC_IN_CNT_PAST_DAY" operator="greaterOrEqual" value="23287.5"/>
										</Node>
									</Node>
								</Node>
								<Node id="11" defaultChild="22">
									<SimplePredicate field="DIS" operator="greaterOrEqual" value="503.655"/>
									<Node id="22" defaultChild="44">
										<SimplePredicate field="ISC_IN_CNT_PAST_3_DAYS" operator="lessThan" value="54410.5"/>
										<Node id="44" score="0.13608311">
											<SimplePredicate field="ISC_IN_CNT_PAST_3_DAYS" operator="lessThan" value="30886.5"/>
										</Node>
										<Node id="45" score="0.12126199">
											<SimplePredicate field="ISC_IN_CNT_PAST_3_DAYS" operator="greaterOrEqual" value="30886.5"/>
										</Node>
									</Node>
									<Node id="23" defaultChild="46">
										<SimplePredicate field="ISC_IN_CNT_PAST_3_DAYS" operator="greaterOrEqual" value="54410.5"/>
										<Node id="46" score="0.14610319">
											<SimplePredicate field="ISC_IN_CNT_PAST_DAY" operator="lessThan" value="24418.0"/>
										</Node>
										<Node id="47" score="0.17464317">
											<SimplePredicate field="ISC_IN_CNT_PAST_DAY" operator="greaterOrEqual" value="24418.0"/>
										</Node>
									</Node>
								</Node>
							</Node>
						</Node>
						<Node id="3" defaultChild="6">
							<SimplePredicate field="DIS" operator="greaterOrEqual" value="681.26"/>
							<Node id="6" defaultChild="12">
								<SimplePredicate field="ISC_IN_CNT_PAST_3_DAYS" operator="lessThan" value="52987.0"/>
								<Node id="12" defaultChild="24">
									<SimplePredicate field="DIS" operator="lessThan" value="4560.56"/>
									<Node id="24" defaultChild="48">
										<SimplePredicate field="ISC_IN_CNT_PAST_3_DAYS" operator="lessThan" value="28874.5"/>
										<Node id="48" score="0.15240003">
											<SimplePredicate field="ISC_IN_CNT_PAST_3_DAYS" operator="lessThan" value="17865.5"/>
										</Node>
										<Node id="49" score="0.17969565">
											<SimplePredicate field="ISC_IN_CNT_PAST_3_DAYS" operator="greaterOrEqual" value="17865.5"/>
										</Node>
									</Node>
									<Node id="25" defaultChild="50">
										<SimplePredicate field="ISC_IN_CNT_PAST_3_DAYS" operator="greaterOrEqual" value="28874.5"/>
										<Node id="50" score="0.14360797">
											<SimplePredicate field="DIS" operator="lessThan" value="1706.365"/>
										</Node>
										<Node id="51" score="0.16464423">
											<SimplePredicate field="DIS" operator="greaterOrEqual" value="1706.365"/>
										</Node>
									</Node>
								</Node>
								<Node id="13" defaultChild="26">
									<SimplePredicate field="DIS" operator="greaterOrEqual" value="4560.56"/>
									<Node id="26" defaultChild="52">
										<SimplePredicate field="ISC_IN_CNT_PAST_3_DAYS" operator="lessThan" value="28685.0"/>
										<Node id="52" score="0.39264035">
											<SimplePredicate field="DIS" operator="lessThan" value="9292.58"/>
										</Node>
										<Node id="53" score="0.26247123">
											<SimplePredicate field="DIS" operator="greaterOrEqual" value="9292.58"/>
										</Node>
									</Node>
									<Node id="27" defaultChild="54">
										<SimplePredicate field="ISC_IN_CNT_PAST_3_DAYS" operator="greaterOrEqual" value="28685.0"/>
										<Node id="54" score="0.120130256">
											<SimplePredicate field="DIS" operator="lessThan" value="8835.25"/>
										</Node>
										<Node id="55" score="0.4057153">
											<SimplePredicate field="DIS" operator="greaterOrEqual" value="8835.25"/>
										</Node>
									</Node>
								</Node>
							</Node>
							<Node id="7" defaultChild="14">
								<SimplePredicate field="ISC_IN_CNT_PAST_3_DAYS" operator="greaterOrEqual" value="52987.0"/>
								<Node id="14" defaultChild="28">
									<SimplePredicate field="DIS" operator="lessThan" value="1070.895"/>
									<Node id="28" defaultChild="56">
										<SimplePredicate field="ISC_IN_CNT_PAST_3_DAYS" operator="lessThan" value="54970.0"/>
										<Node id="56" score="0.15610568">
											<SimplePredicate field="ISC_IN_CNT_PAST_DAY" operator="lessThan" value="15625.5"/>
										</Node>
										<Node id="57" score="0.19312994">
											<SimplePredicate field="ISC_IN_CNT_PAST_DAY" operator="greaterOrEqual" value="15625.5"/>
										</Node>
									</Node>
									<Node id="29" defaultChild="58">
										<SimplePredicate field="ISC_IN_CNT_PAST_3_DAYS" operator="greaterOrEqual" value="54970.0"/>
										<Node id="58" score="0.15018158">
											<SimplePredicate field="ISC_IN_CNT_PAST_DAY" operator="lessThan" value="21603.0"/>
										</Node>
										<Node id="59" score="0.16762727">
											<SimplePredicate field="ISC_IN_CNT_PAST_DAY" operator="greaterOrEqual" value="21603.0"/>
										</Node>
									</Node>
								</Node>
								<Node id="15" defaultChild="30">
									<SimplePredicate field="DIS" operator="greaterOrEqual" value="1070.895"/>
									<Node id="30" defaultChild="60">
										<SimplePredicate field="ISC_IN_CNT_PAST_3_DAYS" operator="lessThan" value="67923.5"/>
										<Node id="60" score="0.20060508">
											<SimplePredicate field="ISC_IN_CNT_PAST_DAY" operator="lessThan" value="18425.0"/>
										</Node>
										<Node id="61" score="0.17575596">
											<SimplePredicate field="ISC_IN_CNT_PAST_DAY" operator="greaterOrEqual" value="18425.0"/>
										</Node>
									</Node>
									<Node id="31" defaultChild="62">
										<SimplePredicate field="ISC_IN_CNT_PAST_3_DAYS" operator="greaterOrEqual" value="67923.5"/>
										<Node id="62" score="0.211953">
											<SimplePredicate field="ISC_IN_CNT_PAST_DAY" operator="lessThan" value="27213.0"/>
										</Node>
										<Node id="63" score="0.18138264">
											<SimplePredicate field="ISC_IN_CNT_PAST_DAY" operator="greaterOrEqual" value="27213.0"/>
										</Node>
									</Node>
								</Node>
							</Node>
						</Node>
					</Node>
				</TreeModel>
			</Segment>
			<Segment id="11">
				<True/>
				<TreeModel functionName="regression" missingValueStrategy="defaultChild" splitCharacteristic="binarySplit" x-mathContext="float">
					<MiningSchema>
						<MiningField name="ISC"/>
						<MiningField name="ISC_IN_CNT_PAST_3_DAYS"/>
						<MiningField name="ISC_IN_CNT_PAST_WEEK"/>
					</MiningSchema>
					<Node id="1" defaultChild="2">
						<True/>
						<Node id="2" defaultChild="4">
							<SimplePredicate field="ISC" operator="lessThan" value="1.5"/>
							<Node id="4" defaultChild="8">
								<SimplePredicate field="ISC_IN_CNT_PAST_WEEK" operator="lessThan" value="74411.0"/>
								<Node id="8" defaultChild="16">
									<SimplePredicate field="ISC_IN_CNT_PAST_WEEK" operator="lessThan" value="66719.0"/>
									<Node id="16" score="0.0891362">
										<SimplePredicate field="ISC_IN_CNT_PAST_3_DAYS" operator="lessThan" value="27825.5"/>
									</Node>
									<Node id="17" score="0.077942066">
										<SimplePredicate field="ISC_IN_CNT_PAST_3_DAYS" operator="greaterOrEqual" value="27825.5"/>
									</Node>
								</Node>
								<Node id="9" defaultChild="18">
									<SimplePredicate field="ISC_IN_CNT_PAST_WEEK" operator="greaterOrEqual" value="66719.0"/>
									<Node id="18" score="0.09965667">
										<SimplePredicate field="ISC_IN_CNT_PAST_3_DAYS" operator="lessThan" value="33825.5"/>
									</Node>
									<Node id="19" score="0.11229614">
										<SimplePredicate field="ISC_IN_CNT_PAST_3_DAYS" operator="greaterOrEqual" value="33825.5"/>
									</Node>
								</Node>
							</Node>
							<Node id="5" defaultChild="10">
								<SimplePredicate field="ISC_IN_CNT_PAST_WEEK" operator="greaterOrEqual" value="74411.0"/>
								<Node id="10" defaultChild="20">
									<SimplePredicate field="ISC_IN_CNT_PAST_WEEK" operator="lessThan" value="90885.0"/>
									<Node id="20" defaultChild="32">
										<SimplePredicate field="ISC_IN_CNT_PAST_3_DAYS" operator="lessThan" value="41373.5"/>
										<Node id="32" score="0.112787046">
											<SimplePredicate field="ISC_IN_CNT_PAST_3_DAYS" operator="lessThan" value="32608.5"/>
										</Node>
										<Node id="33" score="0.12680678">
											<SimplePredicate field="ISC_IN_CNT_PAST_3_DAYS" operator="greaterOrEqual" value="32608.5"/>
										</Node>
									</Node>
									<Node id="21" defaultChild="34">
										<SimplePredicate field="ISC_IN_CNT_PAST_3_DAYS" operator="greaterOrEqual" value="41373.5"/>
										<Node id="34" score="0.09911877">
											<SimplePredicate field="ISC_IN_CNT_PAST_WEEK" operator="lessThan" value="88806.0"/>
										</Node>
										<Node id="35" score="0.12516423">
											<SimplePredicate field="ISC_IN_CNT_PAST_WEEK" operator="greaterOrEqual" value="88806.0"/>
										</Node>
									</Node>
								</Node>
								<Node id="11" defaultChild="22">
									<SimplePredicate field="ISC_IN_CNT_PAST_WEEK" operator="greaterOrEqual" value="90885.0"/>
									<Node id="22" defaultChild="36">
										<SimplePredicate field="ISC_IN_CNT_PAST_3_DAYS" operator="lessThan" value="46793.5"/>
										<Node id="36" score="0.1200032">
											<SimplePredicate field="ISC_IN_CNT_PAST_3_DAYS" operator="lessThan" value="33000.0"/>
										</Node>
										<Node id="37" score="0.10366825">
											<SimplePredicate field="ISC_IN_CNT_PAST_3_DAYS" operator="greaterOrEqual" value="33000.0"/>
										</Node>
									</Node>
									<Node id="23" defaultChild="38">
										<SimplePredicate field="ISC_IN_CNT_PAST_3_DAYS" operator="greaterOrEqual" value="46793.5"/>
										<Node id="38" score="0.11830934">
											<SimplePredicate field="ISC_IN_CNT_PAST_3_DAYS" operator="lessThan" value="48700.5"/>
										</Node>
										<Node id="39" score="0.10741409">
											<SimplePredicate field="ISC_IN_CNT_PAST_3_DAYS" operator="greaterOrEqual" value="48700.5"/>
										</Node>
									</Node>
								</Node>
							</Node>
						</Node>
						<Node id="3" defaultChild="6">
							<SimplePredicate field="ISC" operator="greaterOrEqual" value="1.5"/>
							<Node id="6" defaultChild="12">
								<SimplePredicate field="ISC_IN_CNT_PAST_WEEK" operator="lessThan" value="147676.0"/>
								<Node id="12" defaultChild="24">
									<SimplePredicate field="ISC_IN_CNT_PAST_3_DAYS" operator="lessThan" value="67923.5"/>
									<Node id="24" defaultChild="40">
										<SimplePredicate field="ISC" operator="lessThan" value="2.5"/>
										<Node id="40" score="0.20281135">
											<SimplePredicate field="ISC_IN_CNT_PAST_WEEK" operator="lessThan" value="36202.5"/>
										</Node>
										<Node id="41" score="0.13698551">
											<SimplePredicate field="ISC_IN_CNT_PAST_WEEK" operator="greaterOrEqual" value="36202.5"/>
										</Node>
									</Node>
									<Node id="25" defaultChild="42">
										<SimplePredicate field="ISC" operator="greaterOrEqual" value="2.5"/>
										<Node id="42" score="0.11300454">
											<SimplePredicate field="ISC_IN_CNT_PAST_WEEK" operator="lessThan" value="38983.0"/>
										</Node>
										<Node id="43" score="0.12649354">
											<SimplePredicate field="ISC_IN_CNT_PAST_WEEK" operator="greaterOrEqual" value="38983.0"/>
										</Node>
									</Node>
								</Node>
								<Node id="13" defaultChild="26">
									<SimplePredicate field="ISC_IN_CNT_PAST_3_DAYS" operator="greaterOrEqual" value="67923.5"/>
									<Node id="26" defaultChild="44">
										<SimplePredicate field="ISC_IN_CNT_PAST_3_DAYS" operator="lessThan" value="73028.0"/>
										<Node id="44" score="0.19239978">
